tree
version=v4
num_class=1
num_tree_per_iteration=1
label_index=0
max_feature_idx=134
objective=binary sigmoid:1
feature_names=patch_id arena_id avg_elixir_player avg_elixir_opponent elixir_difference first_crown_time_sec match_duration_sec elixir_spill_rate tower_damage_diff_60s p_trophy_count p_aggression_index p_cycle_mastery p_tilt_factor p_lifetime_matches_estimate p_consistency_index o_trophy_count o_arena_id o_aggression_index o_cycle_mastery o_tilt_factor o_lifetime_matches_estimate o_consistency_index pd_win_condition_family pd_avg_elixir_cost pd_air_defense_score pd_spell_pressure_score pd_skill_floor pd_skill_ceiling pd_tempo_vector_1 pd_tempo_vector_2 pd_control_vector pd_synergy_index pd_complexity_rating od_win_condition_family od_avg_elixir_cost od_air_defense_score od_spell_pressure_score od_skill_floor od_skill_ceiling od_tempo_vector_1 od_tempo_vector_2 od_control_vector od_synergy_index od_complexity_rating bp_meta_volatility bp_aggression_shift bp_control_meta_factor is_missing_patch_id is_missing_arena_id is_missing_avg_elixir_player is_missing_avg_elixir_opponent is_missing_elixir_difference is_missing_first_crown_time_sec is_missing_match_duration_sec is_missing_elixir_spill_rate is_missing_tower_damage_diff_60s is_missing_p_trophy_count is_missing_p_arena_id is_missing_p_aggression_index is_missing_p_cycle_mastery is_missing_p_tilt_factor is_missing_p_lifetime_matches_estimate is_missing_p_consistency_index is_missing_o_trophy_count is_missing_o_arena_id is_missing_o_aggression_index is_missing_o_cycle_mastery is_missing_o_tilt_factor is_missing_o_lifetime_matches_estimate is_missing_o_consistency_index is_missing_pd_avg_elixir_cost is_missing_pd_air_defense_score is_missing_pd_spell_pressure_score is_missing_pd_skill_floor is_missing_pd_skill_ceiling is_missing_pd_tempo_vector_1 is_missing_pd_tempo_vector_2 is_missing_pd_control_vector is_missing_pd_synergy_index is_missing_pd_complexity_rating is_missing_od_avg_elixir_cost is_missing_od_air_defense_score is_missing_od_spell_pressure_score is_missing_od_skill_floor is_missing_od_skill_ceiling is_missing_od_tempo_vector_1 is_missing_od_tempo_vector_2 is_missing_od_control_vector is_missing_od_synergy_index is_missing_od_complexity_rating is_missing_bp_meta_volatility is_missing_bp_aggression_shift is_missing_bp_control_meta_factor diff_trophies diff_aggression diff_consistency diff_cycle_mastery diff_lifetime_matches diff_avg_elixir diff_synergy diff_deck_elixir diff_skill_floor diff_skill_ceiling diff_air_defense diff_spell_pressure diff_control_vector diff_complexity diff_tempo1 diff_tempo2 ratio_trophies ratio_aggression ratio_synergy ratio_avg_elixir patch_x_psynergy patch_x_osynergy patch_x_diff_syn p_agg_x_tempo1 o_agg_x_tempo1 diff_agg_x_tempo arena_x_p_exp arena_x_o_exp diff_tilt p_stability_score o_stability_score diff_stability meta_vol_x_skill_gap meta_shift_x_agg_diff crown_time_ratio time_to_first_crown p_elixir_efficiency elixir_edge log1p_p_trophy_count log1p_o_trophy_count log1p_p_lifetime_matches_estimate log1p_o_lifetime_matches_estimate
feature_infos=[-1:13] [-1:9] [-1:4.6699999999999999] [-1:4.6699999999999999] [-1.6999999999999995:1.6999999999999995] [-1:139] [-1:179] [-1:0.99999467767830363] [-18394.981563759626:16094.351622205812] [-1:4000] [-1:0.9999822789802838] [-1:0.9992248192973856] [-1:0.9999759742442168] [-1:7999] [-1:0.99598732339913965] [-1:4000] [-1:9] [-1:0.9999822789802838] [-1:0.9992248192973856] [-1:0.9999759742442168] [-1:7999] [-1:0.99598732339913965] [0.46943828790421344:0.52833351960687536] [-1:4.6699999999999999] [-1:8.4299999999999997] [-1:8.9900000000000002] [-1:6.1600000000000001] [-1:9.4399999999999995] [-1.012:1.3500000000000001] [-2.2109999999999999:2.6440000000000001] [-1:1.1850000000000001] [-1:7.7300000000000004] [-1:10] [0.46647051289708458:0.52852261364326336] [-1:4.6699999999999999] [-1:8.4299999999999997] [-1:8.9900000000000002] [-1:6.1600000000000001] [-1:9.4399999999999995] [-1.012:1.3500000000000001] [-2.2109999999999999:2.6440000000000001] [-1:1.1850000000000001] [-1:7.7300000000000004] [-1:10] [-1:0.44569513623318019] [-1:0.17889943095354349] [-1:0.1944004255291483] [0:1] [0:1] [0:1] [0:1] [0:1] [0:1] [0:1] [0:1] [0:1] [0:1] [0:1] [0:1] [0:1] [0:1] [0:1] [0:1] [0:1] [0:1] [0:1] [0:1] [0:1] [0:1] [0:1] [0:1] [0:1] [0:1] [0:1] [0:1] [0:1] [0:1] [0:1] [0:1] [0:1] [0:1] [0:1] [0:1] [0:1] [0:1] [0:1] [0:1] [0:1] [0:1] [0:1] [0:1] [0:1] [0:1] [-4001:4001] [-1.9998673901580974:1.9999822789802839] [-1.9934666898061464:1.9959873233991396] [-1.9908941494306327:1.9992248192973856] [-7998:7998] [-5.6699999999999999:5.6699999999999999] [-8.7300000000000004:8.7300000000000004] [-5.6699999999999999:5.6699999999999999] [-7.1600000000000001:7.1600000000000001] [-10.44:10.44] [-9.4299999999999997:9.4299999999999997] [-9.9900000000000002:9.9900000000000002] [-2.1850000000000001:2.1850000000000001] [-11:11] [-2.3620000000000001:2.3620000000000001] [-4.8550000000000004:4.8550000000000004] [-1000000:4000000000] [-26982.225632266851:294400.23126691976] [-0.99999900000100006:7.729992270007731] [-0.99999900000100006:4.6699953300046699] [-13:100.49000000000001] [-13:100.49000000000001] [-113.49000000000001:113.49000000000001] [-1.3500000000000001:1.3499760766233833] [-1.3500000000000001:1.3498878865099613] [-2.6981900789006863:2.6535188664683202] [-8.9870718128488214:76.627698141563442] [-8.9870718128488214:80.871261250821348] [-1.9997040305255123:1.9999759742442169] [-0.94382712870648777:0.96327295221276688] [-0.94382712870648777:0.96327295221276688] [-1.6583926670550806:1.7020445698742974] [-10.44:10.44] [-1.9988249107152689:1.9885832276192597] [-139.000139000139:1.1583333236805557] [-140:180] [-39940.919075931277:546902.79592346773] [-1.6999983000016996:1.6999983000016996] [0:8.2942996088572354] [0:8.2942996088572354] [0:8.987196820661973] [0:8.987196820661973]
tree_sizes=14270 14222 14295 14249 14310 14231 14283 14288 14235 14254 14238 14206 14258 14252 14236 14223 14319 14275 14219 14232 14268 14239 14283 14228 14164 14208 14217 14210 14191 14172 14157 14231 14196 14133 14178 14207 14166 14147 14179 14032 14128 14122 14092 14124 14088 14135 14073 14138 14045 14072 14131 14083 14076 14107 14094 14054 14002 14064 13991 14051 14065 14158 14148 14045 14033 14027 14001 13945 14015

Tree=0
num_leaves=127
num_cat=0
split_feature=107 29 37 102 33 102 22 107 42 102 26 99 33 99 33 27 37 102 107 101 27 101 24 22 38 130 37 99 115 105 102 104 22 101 99 102 99 102 99 102 99 99 115 107 102 34 98 99 116 130 3 3 130 110 112 130 115 115 112 18 127 101 34 10 124 120 5 112 97 94 116 15 99 112 117 96 112 115 130 98 116 39 120 123 116 18 0 17 104 12 115 112 0 125 129 13 94 127 123 127 113 129 10 102 129 131 122 122 44 96 15 116 0 121 123 15 129 127 18 117 125 19 132 126 96 130
split_gain=1446.81 500.428 499.715 302.413 860.387 326.19 299.05 242.269 223.986 295.847 145.184 137.552 133.109 132.689 199.098 158.249 177.921 129.306 128.387 123.915 120.712 115.393 111.851 101.153 132.194 110.201 91.0731 79.0646 73.6543 69.778 65.0461 64.5878 60.5741 58.5701 58.0054 56.8115 53.1263 50.0435 48.3155 47.6646 42.0224 62.7561 39.5868 38.0468 41.4194 37.0415 25.8839 24.7951 24.5088 21.6047 30.8292 22.8717 21.0859 20.837 20.8265 20.3668 19.9454 19.5513 19.3394 21.7532 19.0537 18.5552 18.5231 18.1317 17.9141 17.451 17.2238 17.1401 17.054 16.9151 16.1932 15.9439 15.7079 15.5839 16.4029 15.4058 15.4054 14.9182 14.435 15.9739 15.044 14.5351 14.2965 14.1892 14.1512 14.1386 13.9418 13.725 13.6842 13.6652 20.5913 13.536 13.4475 13.2996 13.163 12.9404 12.928 12.8788 12.8641 15.8632 13.5229 13.1723 12.7785 12.7431 12.6678 16.8159 13.3869 14.3953 12.5291 12.4851 12.467 12.4398 12.3478 12.4452 12.2904 12.4142 15.2326 12.2569 12.0052 12.7813 11.9715 11.8531 11.8043 11.7998 11.7502 11.7406
threshold=0.214 0.47950000000000004 4.830000000000001 0.52499999999999958 0.52591367612827844 0.50000000000000011 0.52241945669243883 -1.9759999999999998 5.9400000000000004 -0.98499999999999932 5.6000000000000005 2.3350000000000009 0.48896532078669058 -0.4649999999999998 0.52591367612827844 8.0550000000000015 5.9050000000000002 -1.0000000180025095e-35 -1.6499999999999997 2.0300000000000007 8.5700000000000021 -1.0149999999999999 7.4800000000000013 0.49713775222743639 7.1850000000000014 0.054482769664752614 3.8150000000000004 -0.80999999999999994 -6.9449999999999994 1.2000000000000002 -0.31999999999999978 2.4500000000000002 0.50482075362160395 0.68500000000000016 -0.93499999999999994 0.73500000000000043 0.59499999999999986 3.4250000000000003 -2.0249999999999995 0.094999999999999765 1.5350000000000004 0.035000000000000149 7.2999999999999998 0.4835000000000001 2.8400000000000003 3.6050000000000009 0.12999999999999992 1.8650000000000004 1.0000000180025095e-35 0.054482769664752614 3.7750000000000008 3.3600000000000008 -0.26525094192398768 0.83289899911640664 0.99483174513001404 -0.024965935433833245 0.90500000000000436 -0.32500000000000145 0.99999975343020264 0.47877500447977733 0.13592844457034145 -1.0000000180025095e-35 4.5900000000000007 0.8029935621728258 -0.81770119262388097 17.827773209751456 21.500000000000004 0.83165936001572716 1507.5000000000002 0.25106736000003577 -0.1616010787362018 2238.5000000000005 0.42999999999999977 0.77464623259305687 -0.053646287336966449 0.40578028716634373 0.93812599787138196 4.5999999999999996 0.3576016364878723 1.2550000000000001 -0.23781934158102377 -0.44299999999999995 38.146036523656697 0.68739032626070429 0.046027199274149312 0.76708575225363418 12.500000000000002 0.83889937567084927 0.99499999999999977 0.09999475822459726 -0.074999999999999276 1.1436397752058129 12.500000000000002 -0.27107789806031807 7.2004482683282269 7696.5000000000009 0.59450907352000038 0.18118373572610971 0.41492632147026881 0.91844292620302825 35.085000000000008 -1.5689127701513461 0.45794181231645753 -1.0000000180025095e-35 4.9045717356891263 7.6882262614714802 -0.3317274585605377 -0.097298685413920297 0.43746116695712484 -0.1141074788768258 2491.5000000000005 0.075192440030436458 4.5000000000000009 -0.44989012201620598 0.38135131092864938 1240.5000000000002 5.750980695074186 0.69624940918888534 0.25173736182968209 -0.17265618139131997 2.4244601724999004 0.88874308652089085 7.8997098975859652 -0.14345963939372944 -1.3767504642878927 0.07258117121034531
decision_type=2 2 2 2 2 2 2 2 2 2 2 2 2 2 2 2 2 2 2 2 2 2 2 2 2 2 2 2 2 2 2 2 2 2 2 2 2 2 2 2 2 2 2 2 2 2 2 2 2 2 2 2 2 2 2 2 2 2 2 2 2 2 2 2 2 2 2 2 2 2 2 2 2 2 2 2 2 2 2 2 2 2 2 2 2 2 2 2 2 2 2 2 2 2 2 2 2 2 2 2 2 2 2 2 2 2 2 2 2 2 2 2 2 2 2 2 2 2 2 2 2 2 2 2 2 2
left_child=1 6 17 5 11 8 7 28 26 -10 70 19 -8 15 18 16 58 93 -15 21 23 -5 45 24 31 39 -2 29 -1 55 -12 52 -6 62 67 87 72 43 -18 60 41 61 88 48 64 122 76 -38 -37 50 51 -13 66 91 73 -17 65 84 59 -9 -26 -25 86 -44 -45 -21 -20 -24 77 125 108 96 111 74 -33 104 -47 124 79 81 -81 -60 -58 85 121 -31 -19 102 -27 90 -30 -54 97 -3 98 -96 -57 -34 -66 100 101 -100 -23 -62 105 -55 -107 -108 -11 -75 -73 118 113 -104 -90 116 -116 -102 119 -28 -56 123 -4 -32 -68 -51
right_child=3 2 22 4 32 -7 12 13 9 10 30 49 -14 14 -16 27 38 33 20 56 -22 35 34 40 25 42 36 -29 89 83 57 54 92 -35 -36 37 47 -39 -40 -41 -42 -43 63 44 -46 46 -48 -49 -50 69 -52 -53 53 75 120 71 82 -59 78 -61 103 -63 -64 -65 94 -67 68 -69 -70 -71 -72 110 -74 109 -76 -77 -78 -79 -80 80 -82 -83 -84 -85 -86 -87 -88 -89 114 -91 -92 -93 -94 -95 95 -97 -98 -99 99 -101 117 -103 112 -105 -106 106 107 -109 -110 -111 -112 -113 -114 -115 115 -117 -118 -119 -120 -121 -122 -123 -124 -125 -126 -127
leaf_value=-0.028370131437975558 -0.031020796425185525 -0.023537066091798058 -0.041172558533958889 -0.0022047378892054922 0.0085465932414532722 -0.039620757024522078 -0.012919438106117162 -0.023681245216293733 -0.022531460492849556 -0.0044693438746969943 -0.0069660107783450203 -0.020002151463819878 0.0055415991872484194 -0.02978269123734659 -0.040346628780258631 -0.0031009614264705734 -0.020893325561942986 -0.020097295767561706 -0.010270514844320261 0.0065583503120173366 -0.035154244813934234 -0.0092538946308624911 -0.02728738383083347 -0.022821838694717992 -0.016568201337103662 -0.012711345491011643 -0.023182389941160755 -0.019912532393461597 -0.0058410083907155345 -0.023080313053846477 -0.04168764837644974 -0.032501439989301779 0.0081720321872857694 -0.009888838750512368 -0.025872006273905384 -0.014743458800002269 -0.012570463240369111 -0.0046186421422263098 -0.028618624483304857 -0.013018453509962058 -0.024378153269555738 -0.0091953797823907963 -0.0059039085595590061 -0.0036536602052173201 -0.020592737811610133 -0.0356845264972823 -0.039511164781932992 -0.017874886587167748 -0.020614206062266108 0.0027976779384893298 -0.018160560466510302 -0.036960294366907238 -0.026262632311772366 -0.030149050651113167 -0.033342187994691963 -0.0089899767481050261 -0.0012894884641970437 -0.022897249442165962 -0.0075848661449406437 -0.016206709485353989 -0.022239606874200013 -0.016558425913649515 -0.013093665365262621 -0.017849014241483822 -0.012819346670926518 -0.0074455460802724596 -0.0039023241905948615 -0.033024554753021081 -0.022333522768643043 -0.020034923489667022 0.0027257285245133774 -0.021609175209110858 -0.022764265426573942 -0.028897306905557363 0.00039986434149374972 -0.0075568853500605094 -0.029542321178207289 -0.025372173636520282 0.013867563672934926 -0.021924974899836518 -0.015361005930455661 -0.015052096251868333 0.008872730015290195 0.003570737128933521 -0.01663460332184712 -0.0080656813120518357 -0.010594429021136578 -0.013956698927511587 -0.020944047649254248 -0.0062225222467705791 -0.024900854462684655 -0.0056113175286795526 0.040594262844788578 -0.0290647161803319 -0.010103162611118483 -0.022270610914080616 0.0011041686729506041 0.023354308136091583 0.00021269257082313919 -0.041406073177559344 -0.01595245569064932 -0.026778391133710357 -0.024199960503758718 -0.027281881476703192 -0.01721150823742449 0.018764170169917323 -0.046780709709792256 -0.011150385088848221 0.011309895944202442 -0.003504808158515945 -0.010640084053081957 -0.018019984184954201 -0.00028200610106754107 -0.0058207579810344249 0.026638606128742536 -0.016679662770421447 -0.010501333991686009 0.0019765899037861891 -0.022267682271553599 -0.0575213906129136 -0.059453538372681664 -0.022984941926808125 -0.055990761479410872 -0.008007794383112634 -0.034973273638339394 -0.013446736008970259
leaf_weight=456.46204271912575 1459.878603219986 2435.047512665391 1336.1388928443193 2936.5058137029409 1474.6273767799139 1447.1296633630991 2929.5063957422972 1856.3456348478794 4390.6348950266838 1884.8432651162148 4411.383169695735 381.21829964220524 1465.1281666904688 4467.6284925937653 1460.1285824328661 1664.8615577816963 3098.242364436388 5497.2928704470396 147.4877355992794 273.47725889086723 1453.6291228979826 1797.6005198210478 1703.6083357781172 1482.3767323791981 1405.6331140249968 1303.1416367441416 54.245489194989204 2939.2555850446224 310.22420318424702 1198.4003465473652 25.997838139533997 381.46827885508537 163.98636364936829 2986.0016978532076 10267.396210625768 4368.1367658674717 4411.6331489086151 1452.6292060464621 5849.5135813951492 1523.6233025044203 1470.6277093738317 2955.7542130947113 1651.1127010732889 638.94686812162399 1499.3753188550472 1660.8618903756142 1506.1247576028109 4404.6337309479713 2996.2508455812931 115.99035477638245 4214.1495707333088 416.96532708406448 1871.0944084078074 513.9572616815567 2864.0118419677019 2754.0209883004427 750.43759706616402 752.93738919496536 750.68757627904415 2044.3300029337406 17704.527773022652 5833.5149117708206 1432.6308690160513 394.46719792485237 5370.3034303039312 1215.6489122360945 30.747443184256554 5639.281063362956 982.66828583180904 1124.9064579606056 2354.0542476922274 418.96516078710556 4414.1329410374165 74.74378465116024 41.496549338102341 285.47626110911369 2688.7764137387276 853.6790119856596 40.996590912342072 1603.1166922003031 1915.090749874711 4971.3366065472364 656.69539223611355 60.244990304112434 2152.3210228979588 179.73505406081676 414.46553495526314 679.94345903396606 1906.8414358496666 3861.678880572319 259.72840218245983 82.243161037564278 102.99143570661545 1978.085511520505 5797.5179051160812 226.2311876565218 359.9700665473938 1212.3991824686527 50.495801001787186 71.99401330947876 431.46412143111229 393.2173018604517 107.99101996421814 1350.387707978487 1444.6298712342978 27.747692629694939 34.997089803218842 140.2383384257555 135.48873338103294 134.73879574239254 675.19385398924351 5216.0662559568882 1206.1497021466494 602.94986146688461 39.746694847941399 414.71551416814327 90.242495849728584 122.23983509838581 499.70844654738903 54.745447620749474 44.496299892663956 162.23650915920734 151.98736143112183 1283.6432581394911 1112.9074557423592 2599.7838139533997
leaf_count=1826 5840 9741 5345 11747 5899 5789 11719 7426 17564 7540 17647 1525 5861 17872 5841 6660 12394 21991 590 1094 5815 7191 6815 5930 5623 5213 217 11758 1241 4794 104 1526 656 11945 41073 17474 17648 5811 23400 6095 5883 11824 6605 2556 5998 6644 6025 17620 11986 464 16858 1668 7485 2056 11457 11017 3002 3012 3003 8178 70824 23336 5731 1578 21483 4863 123 22559 3931 4500 9417 1676 17658 299 166 1142 10756 3415 164 6413 7661 19887 2627 241 8610 719 1658 2720 7628 15448 1039 329 412 7913 23192 905 1440 4850 202 288 1726 1573 432 5402 5779 111 140 561 542 539 2701 20866 4825 2412 159 1659 361 489 1999 219 178 649 608 5135 4452 10400
internal_value=-0.0182685 -0.0214043 -0.0261515 -0.0131262 -0.0103449 -0.0163256 -0.0195129 -0.0201013 -0.0154396 -0.0112935 -0.00754454 -0.0121589 -0.00676157 -0.0206879 -0.0221198 -0.0181242 -0.020503 -0.0188529 -0.0216487 -0.0106998 -0.0209503 -0.0116315 -0.0304635 -0.0205419 -0.021771 -0.0199299 -0.0189871 -0.0129884 -0.00926014 -0.0102042 -0.0112508 -0.0263917 0.0157459 -0.0157927 -0.0283005 -0.0126272 -0.0180651 -0.0136067 -0.0259445 -0.0215475 -0.0164756 -0.0153434 -0.0138001 -0.0142016 -0.0127238 -0.0356483 -0.0338531 -0.0152198 -0.0171327 -0.017705 -0.0198664 -0.0288734 -0.0237705 -0.0215372 -0.0319614 -0.00778691 -0.000812253 -0.0155711 -0.0168096 -0.0197628 -0.022183 -0.0178285 -0.0181941 -0.00820429 -0.0118228 -0.00486292 -0.0269102 -0.0316949 -0.0277366 -0.0148831 -0.000101057 -0.00964358 -0.0205146 -0.0237203 -0.0292435 -0.0184608 -0.0318905 -0.0303907 -0.0155679 -0.0157008 -0.0183506 -0.0140707 0.00346462 -0.0200709 -0.0140473 -0.0211155 -0.0194296 -0.00741001 -0.0168509 -0.00728974 -0.0145336 -0.0253876 0.0229073 -0.0260168 -0.0122426 -0.0105613 -0.00781859 0.0215593 -0.0138166 -0.01882 -0.017184 -0.0236782 -0.00621378 -0.0225974 -0.0199053 -0.0253371 -0.0131784 -0.0182988 -0.00340162 -0.0125925 -0.0148445 -0.0188087 -0.00336884 -0.00862179 -0.01905 -0.0124324 0.00102169 -0.0119706 -0.0255699 -0.0405769 -0.0337504 -0.0102691 -0.0427015 -0.00868889 -0.0341277 -0.0127474
internal_weight=224307 139338 39697.7 84968.9 45453.2 39515.7 99640 95245.3 38068.6 17553.5 13162.9 42499.2 4394.63 90357.2 57976.9 32380.3 22129.7 14743.5 56516.8 33646.2 52049.2 30749.9 24954.2 50595.5 38853.3 27784.4 20515 10250.6 4888.09 7311.39 8788.52 11068.8 2954 10330.4 17610.3 27813.4 19055.2 23418.8 8947.76 21984.2 11742.3 10271.6 5800.27 21966.2 14601.8 7343.89 5855.76 8816.27 7364.39 8853.01 5012.33 798.184 7527.87 4400.38 3540.96 5873.01 2896.26 4377.14 13181.9 3900.68 20460.5 7315.89 7344.39 2045.58 13102.4 1489.13 3127.49 7342.89 2980 3840.68 4374.39 4208.15 10238.9 632.447 422.965 2447.05 4349.64 1997.33 9281.23 9240.23 3518.21 5722.02 1407.13 1438.38 3624.2 1378.14 5911.76 4394.63 3754.69 4431.63 569.953 1953.34 1479.38 4413.13 12463.5 6023.75 3113.99 1376.39 6439.71 1069.41 997.417 443.713 3714.69 19054.9 2161.57 716.94 202.983 175.235 2020.33 209.483 1094.16 5824.77 1917.09 710.941 2451.55 544.705 129.989 553.704 608.699 108.991 2908.51 1471.88 1488.13 1309.64 1143.65 2715.77
internal_count=897301 557397 158804 339904 181828 158076 398593 381013 152287 70220 52656 170011 17580 361459 231927 129532 88526 58979 226086 134596 208214 123010 99825 202399 155426 111147 82067 41006 19554 29248 35157 44279 11817 41325 70447 111263 76227 93683 35794 87944 46973 41090 23203 87872 58412 29378 23425 35268 29460 35415 20051 3193 30114 17603 14165 23494 11586 17510 52732 15604 81849 29266 29380 8183 52414 5957 12511 29374 11921 15364 17499 16834 40959 2530 1692 9789 17400 7990 37128 36964 14074 22890 5629 5754 14498 5513 23649 17580 15020 17728 2280 7814 5918 17654 49858 24097 12457 5506 25761 4278 3990 1775 14860 76226 8647 2868 812 701 8082 838 4377 23301 7669 2844 9807 2179 520 2215 2435 436 11635 5888 5953 5239 4575 10864
is_linear=0
shrinkage=1


Tree=1
num_leaves=127
num_cat=0
split_feature=107 108 29 37 106 103 4 106 99 33 108 33 40 106 106 28 108 102 4 4 41 104 102 4 102 107 103 3 106 40 102 98 25 104 36 105 3 111 107 25 111 99 22 107 107 99 26 108 100 108 105 107 129 103 117 118 18 14 44 19 103 8 128 4 29 105 119 126 15 33 125 4 98 93 124 9 123 120 119 4 124 126 132 6 93 121 126 132 44 96 20 113 129 129 10 129 130 128 0 33 14 97 34 11 123 8 129 128 17 0 6 118 15 10 134 11 123 128 119 18 126 46 119 123 14 93
split_gain=1329.79 694.946 458.643 444.69 280.952 423.08 237.517 189.23 312.144 252.534 166.338 164.986 136.515 124.217 119.962 110.816 108.175 101.133 93.3901 119.276 89.3738 89.2265 83.2847 81.6158 80.1476 79.386 75.4859 73.6157 81.2491 73.0752 66.8149 62.3522 58.7228 52.6269 116.221 51.5701 42.5098 39.7775 55.2651 45.7975 39.7046 40.7788 34.0764 29.0191 28.2083 27.9851 27.948 25.3001 24.0195 22.2756 21.9633 21.3142 20.1223 19.8482 18.3998 18.2964 18.0887 17.4518 17.1773 16.3521 16.2924 15.6697 15.6135 15.2148 15.1492 15.1298 15.113 15.0763 14.9575 14.9161 14.7523 13.8744 13.7526 13.7329 13.681 13.5315 13.4658 13.1244 13.0875 13.0026 14.0627 12.82 16.0964 12.8 12.5462 12.4971 15.5844 12.4584 12.3577 12.347 13.7664 12.6248 12.3453 12.3196 12.2053 12.2032 12.1706 12.1551 12.0754 11.9337 11.8723 11.839 12.2185 12.2481 11.7947 11.7309 11.6979 11.6709 11.5769 11.5721 11.5542 12.257 11.5377 11.5053 11.5009 11.4839 15.1456 11.4241 19.5616 11.6512 11.4118 11.2788 11.2486 11.2357 14.0263 14.1559
threshold=0.214 4.0005000000000015 0.47950000000000004 4.830000000000001 -1.0000000180025095e-35 -0.42499999999999977 1.6699999999999999 -6.4999999999999991 -1.9449999999999996 0.49342834284556641 1.7980000000000003 0.52591367612827844 0.47950000000000004 -1.4999999999999998 -5.4999999999999991 1.1600000000000004 -3.1154999999999995 -1.0000000180025095e-35 0.72499999999999998 0.66000000000000003 -0.27749999999999991 1.0450000000000002 -2.8399999999999994 -0.52999999999999969 -1.5749999999999991 -1.9054999999999997 -0.61000000000000021 4.4650000000000007 8.5000000000000018 -1.3564999999999998 0.85499999999999965 0.18500000000000008 8.2950000000000017 0.37500000000000006 6.7000000000000002 -0.5694999999999999 4.4650000000000007 0.77619653606771855 0.57900000000000007 5.2150000000000007 0.99999985854050133 1.3900000000000003 0.51288864240392773 -1.6499999999999997 2.3560000000000003 1.5350000000000004 6.0000000000000009 0.3010000000000001 -4.6049999999999995 2.6525000000000003 0.24800000000000003 1.4130000000000003 7.6887406389844042 -1.3749999999999993 0.2099821840826393 -0.090068296057184347 0.51745537626988625 0.82298053662789383 0.17039452527262133 0.88874308652089085 2.7549999999999999 1017.0883143201279 -1.4999999999999998 -0.63999999999999979 0.47950000000000004 0.71300000000000008 67.799264967127684 -0.10231124812756572 3352.0000000000005 0.50012796471918441 -0.74463956540442167 -0.25999999999999995 0.26000000000000006 -1986.4999999999998 0.47565063823663029 714.50000000000011 -0.14489993026677936 42.861949472217908 27.980017254002345 0.98499999999999976 -0.020510837715304372 -0.038626432100115481 7.851855692577578 121.50000000000001 2173.5000000000005 0.18156647306251719 -0.0055354631407286024 8.1012229952631518 0.1830767160872728 0.37332312196488099 6291.5000000000009 59.435000000000009 6.9360942873577134 7.5630972281588162 0.81479642265771857 92.19132998245972 -0.26256142653778586 105.50000000000001 9.5000000000000018 0.50012796471918441 0.70988809836932443 4291.5000000000009 4.0650000000000004 0.70746556994911647 -0.55438871503981357 -478.70376369141189 9.3512382718739548 113.50000000000001 0.76218095773098882 8.5000000000000018 153.50000000000003 0.61491589198748853 691.50000000000011 0.06537458962105662 8.9075446594239356 0.12604214151099413 0.46154873798900975 79.500000000000014 26.482624295037244 0.23469765239639298 -0.042468141824206058 -0.12293724516341284 16.417519122609658 0.50012760125602707 0.73692674121329038 152.50000000000003
decision_type=2 2 2 2 2 2 2 2 2 2 2 2 2 2 2 2 2 2 2 2 2 2 2 2 2 2 2 2 2 2 2 2 2 2 2 2 2 2 2 2 2 2 2 2 2 2 2 2 2 2 2 2 2 2 2 2 2 2 2 2 2 2 2 2 2 2 2 2 2 2 2 2 2 2 2 2 2 2 2 2 2 2 2 2 2 2 2 2 2 2 2 2 2 2 2 2 2 2 2 2 2 2 2 2 2 2 2 2 2 2 2 2 2 2 2 2 2 2 2 2 2 2 2 2 2 2
left_child=2 6 4 17 5 12 7 20 -9 29 24 15 26 60 -7 16 -6 -4 19 23 36 49 -16 25 -11 95 35 28 45 76 48 101 37 50 46 54 99 -26 53 56 74 -42 70 123 64 68 51 59 -14 -12 83 61 58 -39 -1 -24 -40 108 -22 -37 -5 -35 77 -52 114 96 -49 -55 -25 -20 -29 -47 -66 -13 -15 -61 -10 -30 93 80 -50 98 -83 -31 112 86 120 -81 -88 -71 91 100 -65 -23 -69 -18 104 -46 -21 117 -91 102 103 -19 -45 -72 -51 -3 -58 -90 111 -57 -85 -94 -41 116 -62 -2 -119 -120 -36 -105 -77 -27 -125 -126
right_child=1 107 3 13 11 14 -8 8 9 10 21 73 30 40 22 -17 18 31 69 81 52 78 55 27 32 43 -28 42 62 33 -32 -33 -34 34 85 47 -38 38 39 44 41 -43 -44 65 97 71 -48 66 79 106 63 -53 -54 67 -56 110 57 -59 -60 75 115 -63 -64 92 72 -67 -68 94 -70 89 105 -73 -74 -75 -76 122 -78 -79 -80 87 -82 82 -84 84 -86 -87 88 -89 109 90 -92 -93 113 -95 -96 -97 -98 -99 -100 -101 -102 -103 -104 121 -106 -107 -108 -109 -110 -111 -112 -113 -114 -115 -116 -117 -118 118 119 -121 -122 -123 -124 124 125 -127
leaf_value=0.0050837033174545507 0.0044180798955021179 0.041205530444169546 -0.0069711359378967904 -0.0073197421443956055 -0.011771581623022297 0.023545525250988894 0.024210378305437544 -0.019675080568904761 -0.0028561331273791344 -0.0035807034793737536 0.013784448673532321 -0.046105310835581018 -0.0050301979993227879 -0.011318356986202469 -0.0027790560722673135 -0.016335069645844403 0.0077843175819966278 -0.00023517280583974255 0.0066445737820585203 -0.015885785433374506 0.030813385312788384 -0.0016625956481855599 0.012076337914912819 0.00067412528474930012 -0.0011170913256343389 -0.010812024767102439 -0.014750039160892712 -0.0035221861301987694 0.0045318040097846067 -0.015290579874522058 0.013653214582128911 -0.0024217928456610805 0.011853790503284872 -0.0023421063917176735 0.0067831962741676912 -0.0028012759149553218 0.014296833327416726 -0.0032894321002926311 0.020334898874059291 0.007613368647514206 -0.022423523878020189 -0.014061528942729745 0.0013959623659728225 -0.014313547191826079 -0.0031200581828308188 0.020708783776730744 0.0048393798654275738 -0.01125726511689064 0.0079412416312671496 0.01756726407028086 -0.002178553423067742 0.0016058321519900243 0.022532814019314461 -0.0058506287266981601 -0.0058418112154017083 0.0090131420218812278 0.0096758557174806917 0.029116512211422294 0.012378979885550036 0.0074636450480741919 -0.028338069719439363 -0.014179829550695156 0.009760712118953142 0.0089237127878145292 0.0075278381784516808 -0.006663412269001444 0.024578601183701452 0.0043509187251770309 -0.01214178655898107 0.00017915327702817843 -0.016199713409163097 -0.0072118617375963538 0.0031153514090959777 -0.018820379632995935 -0.017788271161217551 -0.030898338020789781 -0.013893437142658791 -0.027336008636404813 0.0081635936302868212 8.625823456055849e-05 0.00182427602308798 -0.0092673267509387775 -0.021361689598283381 -0.014366781090696189 0.013676639843624173 0.015689129918003031 0.016853077443946634 -0.033391029506066948 0.0067269818921613369 0.0024395663171761007 0.027792025251413489 -0.011320904258937954 0.019067392045737572 0.0072850231697630802 -0.00063416729803515714 -0.02046024110669481 3.625672733814023e-05 0.0078576323163195416 -0.035488773136084693 0.0069818859816204934 0.024807743254463169 -0.00094965918140881228 0.0076310237759079393 0.026274694710893411 -0.0038197427069122333 -0.0080975265557107073 0.026937106538499889 0.029002599351217268 -0.0072244743033005963 -0.0048772913926343605 0.0042364266736778806 0.027021860178156588 -0.0041062447179584611 -0.00256265661373476 0.015148874686107608 -0.010673820961055618 0.0092480360146233176 -0.016948501588898834 -0.018005050002241469 0.0050501653970165018 0.019250016917647203 0.0045617173447421886 -0.0094517300467768101 -0.0077945922353372518 0.028321401563405419 -0.0064309575463783256
leaf_weight=2272.3312939852476 855.92199885845184 1215.3184834867716 4408.9969469159842 10265.75042720139 2943.6471884995699 1468.48870870471 1482.9710019081831 1452.6797775775194 372.91029173135757 2930.1281245648861 4412.965947046876 47.730572372674942 1078.6538199931383 4845.4995909482241 1462.840333878994 1465.2972719371319 1408.7112637162209 1093.645140349865 2877.1577999293804 427.64450739324093 140.49977812170982 837.21011750400066 5032.4118499457836 16988.889906346798 2952.783128798008 2622.9241290092468 1495.5873795747757 1434.0780619382858 84.497822165489197 291.46248134970665 1447.7275992631912 4420.0847833752632 2890.7003240734339 5799.4444804340601 307.99175602197647 9206.5994149446487 1419.4983078241348 1477.8085681200027 784.24613793194294 6833.0653339475393 2932.007772475481 2918.9473206102848 1398.4041393399239 274.96618084609509 1142.1485497653484 45.246306389570236 2558.8367464840412 1439.4552227705717 1816.64298145473 953.99062666296959 2980.2254333347082 4557.8386314064264 1496.4976467937231 458.21700428426266 463.21124257147312 2070.6913466900587 455.9978342205286 93.99955515563488 1286.997977912426 111.73689649999142 180.4599546790123 293.47233504056931 2738.930253431201 686.44762441515923 3034.1259270608425 4926.1300821006298 29.493960112333298 6842.0324639976025 230.22804854810238 2448.8431188464165 567.91546958684921 1553.498764321208 4241.2991814315319 1416.1735792458057 989.24385625123978 64.991739168763161 1083.7392928600311 51.498763859272003 2838.1339798867702 1703.58715043962 1951.884217068553 2054.2393148541451 318.67062066495419 295.96190965175629 92.738072827458382 1007.4718083143234 185.4949637055397 27.747350960969925 626.23397772014141 164.23916980624199 81.744593590497971 87.744120419025421 67.494205996394157 709.97602501511574 1494.14904050529 38.74886292219162 2143.8252704441547 322.97160784900188 97.22596874833107 1463.6925279796124 92.993923306465149 647.46862453222275 3909.1267237663269 87.992390304803848 10193.74948348105 2136.1798444390297 522.7447405308485 244.22405737638474 129.49933445453644 325.99194556474686 1602.9560662657022 98.997656166553497 3714.7720377296209 639.95147329568863 548.73497155308723 2712.9069286584854 30.993004083633423 208.98003816604614 63.742388755083084 370.96954965591431 462.48828406631947 187.73104283213615 1008.3726232945919 287.68726772069931 64.485822290182114 52.73851016163826
leaf_count=9090 3424 4862 17639 41070 11777 5874 5932 5813 1492 11722 17652 191 4315 19387 5852 5863 5635 4375 11509 1711 562 3349 20130 67962 11812 10494 5984 5737 338 1166 5791 17682 11563 23200 1232 36831 5678 5912 3137 27333 11733 11679 5594 1100 4569 181 10236 5759 7267 3816 11922 18233 5986 1833 1853 8283 1824 376 5148 447 722 1174 10956 2746 12137 19708 118 27370 921 9796 2272 6215 16966 5667 3958 260 4336 206 11353 6815 7808 8219 1275 1184 371 4030 742 111 2505 657 327 351 270 2840 5977 155 8576 1292 389 5855 372 2590 15637 352 40780 8546 2091 977 518 1304 6412 396 14861 2560 2195 10854 124 836 255 1484 1850 751 4034 1151 258 211
internal_value=4.9554e-05 0.00497932 -0.00295815 -0.00750766 -0.0011482 0.00239278 0.00438126 0.00402252 0.0032713 0.00372652 0.00592681 -0.00313929 -0.00139591 -0.0115867 0.0101786 -0.00274926 -0.00242182 -0.00063023 -0.00194624 -0.00261335 0.0117022 0.0115489 0.00826535 -0.00203304 0.00434956 -0.00429689 -0.00405273 -0.000202565 0.00111068 -0.000190019 0.00393004 0.00207169 0.00503924 0.000446801 0.00214225 -0.00295583 0.00718224 0.00439955 0.00498446 0.00668659 -0.0153411 -0.0182543 -0.00534849 -0.00509362 0.0059169 -8.52012e-05 0.00014746 -0.00438329 0.00178864 0.0155699 -0.00267031 -0.000979475 0.018473 0.00206974 0.00323112 0.0101009 0.015156 0.00916082 0.014207 -0.00351399 -0.0082597 -0.00291422 0.00893869 -0.000160775 0.00657814 -0.0043125 -0.0105262 0.002971 0.000502132 0.00409903 -0.00762873 -0.00641232 0.0049566 -0.0197289 -0.0124176 -0.00904308 -0.0110732 -0.0075551 0.00614629 0.00312722 0.00477499 -0.012471 -0.0108978 -0.00516652 -0.00444443 0.0111765 0.00878782 -0.000456866 0.00505896 0.00154962 0.00939326 0.00498517 0.004149 0.0024411 0.00345682 0.00701795 -0.00339368 -0.000694866 -0.0195568 0.00377065 0.0105779 0.00542407 0.00620685 0.0021363 -0.00409652 -0.00980368 0.0208954 0.0391777 0.00592636 0.00274857 0.00746313 0.00984318 -0.00486634 -0.000479959 0.00817519 -0.0115558 -0.0227966 0.000631728 -0.00439477 0.00164126 0.0142806 0.0115442 -0.0107688 -0.00961509 -0.0018455 0.0126831
internal_weight=224212 84959.9 139252 39630.9 99621.1 35854.4 83500.3 82017.4 74710.6 73257.9 46906.9 63766.7 24118 24875.8 11736.4 62302.8 60837.5 14755 57893.8 52141.1 7306.8 10275 10267.9 49243.3 36631.9 22014 16091.8 27229.4 21692.8 26351 8026.24 10346 33701.8 24894.3 16125.3 14596.2 4382.8 30811.1 27858.3 17586.1 11685.7 5850.96 5536.58 20566.5 16122.3 18817.9 13209.6 11860.6 6578.52 5889.7 8769.05 10650.8 2924 10272.2 2735.54 8805.06 1463.74 679.497 1427.5 10391.7 13190.1 6092.92 2874.93 4374.12 14657.2 17538.7 1468.95 8794.4 17219.1 5752.72 4138.17 1598.75 7275.43 1463.9 5834.74 1185.1 1456.65 135.997 4385.32 5499.86 3768.53 2897.78 2372.91 4394.93 4103.47 2915.67 1908.2 1731.33 1137.72 2875.56 426.722 344.977 1393.89 1547.19 8336.18 1447.46 12612.5 1465.12 524.87 2963.31 257.233 5925.96 5278.5 1369.37 10468.7 2704.1 1476.74 1459.54 585.497 952.226 3772.65 2169.69 4010.73 707.446 7381.8 2924.36 211.453 1499.61 643.692 434.712 770.48 275.723 1073.36 3027.84 404.912 117.224
internal_count=896946 339863 557083 158553 398530 143430 334024 328092 298864 293051 187637 255100 96483 99527 46947 249242 243379 59026 231602 208590 29228 41101 41073 196996 146536 88068 64376 108928 86779 105414 32107 41387 134814 99586 64506 58392 17532 123251 111439 70347 46757 23412 22149 82278 64492 75279 52843 47449 26316 23559 35080 42607 11696 41092 10943 35221 5855 2718 5710 41572 52770 24374 11500 17498 58631 70164 5877 35180 68883 23012 16555 6396 29103 5858 23345 4741 5828 544 17542 22001 15075 11594 9494 17582 16416 11663 7633 6926 4551 11503 1707 1380 5576 6189 33347 5790 50456 5861 2100 11854 1029 23705 21115 5478 41880 10818 5907 5839 2342 3809 15091 8679 16045 2830 29528 11700 846 5999 2575 1739 3082 1103 4294 12114 1620 469
is_linear=0
shrinkage=0.05


Tree=2
num_leaves=127
num_cat=0
split_feature=102 39 28 108 101 39 102 39 103 108 35 22 39 22 108 37 103 37 28 28 37 25 104 24 34 26 22 4 103 104 104 25 101 130 4 117 32 3 34 104 30 34 2 125 4 22 22 39 125 111 99 31 124 128 99 28 25 117 120 0 45 125 118 10 98 113 96 24 98 118 118 109 93 7 119 44 109 13 110 8 12 12 5 8 102 129 2 124 93 4 10 129 132 21 117 121 3 115 96 120 115 98 122 3 45 98 2 8 122 129 115 124 18 116 6 128 94 121 129 110 130 120 122 125 20 121
split_gain=627.485 822.512 474.679 400.36 262.16 209.361 184.227 242.353 233.196 150.418 552.488 152.629 149.873 173.93 130.516 144.401 110.852 102.879 125.752 98.1858 136.561 94.4165 88.2191 82.8193 76.9623 75.6226 72.0398 64.4747 62.0919 69.2561 93.8816 59.0967 48.1364 43.4672 40.3749 40.1134 46.8091 39.1941 38.0273 29.5983 32.4047 29.4065 28.4492 25.4618 23.8175 22.1403 21.8584 20.9529 20.3111 19.3305 19.2649 18.9901 19.243 18.9307 18.6204 18.354 16.957 16.8467 16.5161 16.5127 16.3272 15.7279 15.5899 15.4369 15.2477 15.2344 15.2179 15.6141 15.0548 15.0387 14.743 14.4737 14.2835 14.2279 14.0158 13.9283 14.5895 13.9089 13.6944 13.5973 13.3545 13.1163 13.0706 12.8882 12.8448 12.9317 12.8353 12.7927 13.1343 12.7804 13.0164 13.9213 12.7364 12.7106 12.603 12.4944 12.3935 14.4978 14.7102 14.8857 13.9128 13.5189 14.5586 13.3966 16.7414 14.0742 12.3049 13.3798 12.1489 12.0698 15.2882 11.9462 11.8839 13.8979 11.8124 11.7693 11.7306 11.7003 14.8278 12.8494 11.6766 11.6595 15.0203 11.6495 11.5998 11.5939
threshold=0.52499999999999958 -1.0059999999999998 -0.44299999999999995 -4.0004999999999997 -1.0149999999999999 0.89950000000000008 0.50000000000000011 -0.58149999999999991 0.61000000000000043 -0.18399999999999997 5.4300000000000006 0.48907624678517192 0.89950000000000008 0.49972671874624003 -1.1879999999999997 4.830000000000001 1.0450000000000002 5.2650000000000015 -1.0059999999999998 1.1600000000000004 5.6000000000000005 5.9450000000000012 -2.3349999999999995 5.1500000000000012 4.3800000000000008 4.4650000000000007 0.49972671874624003 1.6699999999999999 -3.2399999999999993 -0.80999999999999994 -0.12999999999999987 8.2950000000000017 1.5150000000000003 -0.084018694591321802 0.50000000000000011 0.37212604445382841 9.5000000000000018 4.3000000000000007 3.1300000000000003 0.22499999999999967 0.16750000000000001 3.6050000000000009 3.8500000000000005 -0.91021080387039088 -1.0000000180025095e-35 0.48380587005135439 0.50482075362160395 0.89950000000000008 -0.11982141926248073 0.99999983333289821 8.5750000000000011 5.9400000000000004 0.085343375625105092 123.50000000000001 0.42999999999999977 0.89950000000000008 5.9450000000000012 -0.21884606913004234 60.905347749029474 12.500000000000002 0.048750097508624808 0.74700415821863075 -0.93215020024536777 0.22982589794399483 -1.0000000180025095e-35 47.585000000000008 0.4204548364676205 5.4300000000000006 0.38499999999999984 1.226173607151098 -0.34992830878089964 0.83767167282619681 2101.5000000000005 0.39483364369693785 26.798419885195933 0.43746116695712484 1.324846480190595 7836.0000000000009 5.2696915092219543 331.45257892498199 0.97836279982797691 0.32240828331891758 112.50000000000001 -1121.5291419396972 -1.4799999999999998 10.422667379683048 3.0000000000000004 -0.32787261613874069 1305.5000000000002 -0.069999999999999785 0.67339354388693351 102.68574675167565 7.7317113755970857 0.75499778634948256 -0.75356293298027921 0.62337324373622593 3.0000000000000004 10.780000000000005 0.36126922430530867 59.314883102512901 0.35499999999999959 -4.3599999999999994 -0.41205335841604912 3.8500000000000005 0.090944945130498014 0.24000000000000002 4.3000000000000007 -1451.5180304810926 -0.2900733840490225 18.198378677617708 -21.089999999999993 0.30390764080143207 0.72008746332556883 -0.04332321932358419 147.50000000000003 137.50000000000003 0.17289248349542416 0.01680897689636263 5.1281073784113769 5.7860694112304545 0.3576016364878723 8.4628425910920111 0.17079618509526248 -0.13312217165000118 2104.5000000000005 1.4788792595742726
decision_type=2 2 2 2 2 2 2 2 2 2 2 2 2 2 2 2 2 2 2 2 2 2 2 2 2 2 2 2 2 2 2 2 2 2 2 2 2 2 2 2 2 2 2 2 2 2 2 2 2 2 2 2 2 2 2 2 2 2 2 2 2 2 2 2 2 2 2 2 2 2 2 2 2 2 2 2 2 2 2 2 2 2 2 2 2 2 2 2 2 2 2 2 2 2 2 2 2 2 2 2 2 2 2 2 2 2 2 2 2 2 2 2 2 2 2 2 2 2 2 2 2 2 2 2 2 2
left_child=3 27 14 48 47 26 7 8 17 12 41 34 13 16 -3 22 89 43 -19 20 31 66 -16 -7 92 -10 50 59 -28 -30 73 39 37 -18 44 36 49 57 46 40 -13 72 75 62 56 -17 74 79 71 123 77 69 -53 81 60 -43 70 -24 117 -2 -26 -48 -5 94 82 -47 67 68 86 -45 -12 -1 -11 -31 -32 -27 -77 96 -60 -4 120 -20 87 -51 -23 -86 124 -42 -89 -9 106 -92 -15 108 -63 -85 -6 98 100 101 109 -100 -103 104 -99 -105 -91 -108 -46 -98 -111 -21 -35 -114 -106 -33 -87 119 -119 -41 -34 -44 -123 -22 -14 -58
right_child=1 2 4 6 5 23 -8 9 25 10 11 19 21 24 15 45 33 18 53 111 35 84 32 -25 54 42 28 -29 29 30 38 115 80 112 -36 -37 -38 -39 -40 58 64 55 121 51 93 65 61 -49 -50 83 -52 52 -54 -55 -56 -57 125 -59 78 -61 -62 63 -64 -65 -66 -67 -68 -69 -70 -71 -72 -73 -74 -75 -76 76 -78 -79 -80 -81 -82 -83 -84 95 85 116 -88 88 -90 90 91 -93 -94 -95 -96 -97 97 103 99 -101 -102 102 -104 105 114 -107 107 -109 -110 110 -112 -113 113 -115 -116 -117 -118 118 -120 -121 -122 122 -124 -125 -126 -127
leaf_value=0.0080646159295792597 0.035172440926231383 0.011940239906195178 0.016765704572281794 -0.025887650209663379 0.010804627245151029 -0.015700967492498663 -0.020176044410453019 -0.0034837462285291034 -0.0016962265670598812 -0.022853846394679068 -0.0088625508991694805 -0.0031471576901098185 0.030341931131056356 0.011374103859266481 0.011798731977928544 -0.01102940305661879 -0.001914682403605763 -0.019567522148986435 -0.0080133325855113683 -0.015784169111422365 -0.0043517776807475974 0.010488135230762108 0.0026482587634473844 -0.0011974308587829378 0.0034460028588769588 0.013429440065267476 -6.2816962571601368e-05 0.021767197869201067 -0.0028716300929275654 0.026461227292793873 0.0059981613517226633 -0.0071739598691225332 -0.0060476517395109848 -0.0096599123011186505 -0.014352143159485339 -0.014278962258265984 -0.0084312701772171518 0.0082740191775221138 0.0089612257013303651 0.011067380201846132 -0.002438578511393309 -0.012856957857676638 -0.00040016942627729176 -0.0014550207423217984 0.0055521597615435271 -0.0075760144296560103 0.0094298077569522441 0.021951732554331582 0.022645699698497529 0.012696970373923935 -0.0069981847702613315 0.0048592118287301492 -0.00089601188295630274 0.0080359956451610572 -0.0051180297614012221 -0.017710960981491379 -0.0080081709158421766 -0.0024153170562367238 0.00057108015130823522 0.055929445657953769 -0.0018727384765553417 -0.019500722671148982 0.0086539225081786932 0.0060133126858719155 0.0026475239314709838 -0.0035825706977415314 -0.0092533429609746379 0.00021694884874623598 0.00051677518790621069 -0.033021143888197678 -0.0022610499942741584 0.016854698485300589 0.0093841241837264774 0.016343732490357008 -0.0028379658008352692 0.035529096453205199 0.0076753096447976579 -0.0092366680295173798 -0.030400590248886396 0.0092061799326466336 -0.025920709078786009 -0.0011346870174495274 0.016765571121015038 -0.0030518489650879204 0.006926043146208441 0.0050168331856966075 -0.016213930859357083 0.011020756257251072 -0.0076223214515904365 0.0040135164864166717 0.0018588776864319316 0.024337949040651546 0.0036572980184458289 0.0044752686244632469 0.00042629900150165318 -0.013143742851865862 -0.000118897816496579 -0.002630143881083576 -0.025683645575658904 0.025642288001410198 0.0058614170233219406 0.028198988028268798 0.0061136480632406837 0.00037363242221316123 -0.0076760738415492333 0.023669399242921527 0.027790839480567466 -0.0039618019334396902 -0.0049272174700465583 -0.014990968129335772 0.0078473053051533563 -0.005596091326007367 -0.017359866896742987 -0.0069904138821273209 -0.03759428196188986 0.01304716154337017 -0.0019371464129854651 -0.00017931061646629806 0.0079516421255312296 -0.0014250420787715742 0.014316736771660565 0.0062660892052730571 0.012643670871983162 0.0031171136427093652 -0.006349321425119861 0.0067330452976131329
leaf_weight=756.21350005269051 1407.7075103074312 1451.2286698073149 2103.3832862973213 32.996990874409676 474.971061617136 1476.3319774717093 1447.976815238595 16072.720011398196 1463.7504329681396 1451.702036857605 1145.8054079711437 1985.816707149148 27.744691327214241 2236.4750652909279 1445.2196774482727 2931.2257767170668 1751.4572173207998 1482.4048242121935 1058.1187593191862 1062.995082244277 637.91420122981071 1456.4845480769873 2460.2716330289841 2954.1565247029066 3422.6847606003284 2929.609139919281 2957.7542323619127 1418.8693274855614 1489.3244797289371 605.87388661503792 677.46126988530159 1402.9039369523525 3469.2242105156183 6818.8480827212334 1453.1643283814192 872.35272631049156 2903.575119137764 1443.7438181191683 14627.071621969342 2587.4744426310062 333.99702301621437 5866.5354758948088 370.99415498971939 5839.5333326160908 324.20906029641628 6463.5740488171577 2297.968191459775 1467.9394984841347 889.89284700155258 117.97627486288548 540.4121471196413 3335.8787504583597 2569.6418305486441 400.96325650811195 1449.7105244994164 2938.3766852468252 8817.9093075990677 4937.6673785895109 417.4938805103302 105.08514827489853 2492.5237800627947 87.245393648743629 1254.9336361140013 2762.6590996682644 4207.3359023332596 3799.58671836555 664.41107600927353 3891.0801513195038 394.18545845150948 37.495391592383385 3241.1684563159943 1248.6917329132557 34.714887976646423 836.15768885612488 1326.9232578277588 146.98033761978149 70.240084126591682 240.48582397401333 38.499496161937714 837.45469932258129 82.731615215539932 2013.5017874836922 359.24286073446274 3041.8929492980242 4656.628044039011 1704.2009636759758 435.41841913759708 840.49237315356731 105.74898417294025 628.71170151233673 1762.7876396477222 71.241501048207283 706.23624707758427 677.16783958673477 824.72607190907001 341.17498107254505 3869.0582148134708 403.70268324017525 30.748810857534409 113.99547083675861 2307.6792953908443 79.746190220117569 1109.199736148119 2030.8714794665575 65.242448598146439 66.495848804712296 32.995978593826294 3180.3690690696239 1853.5220419317484 78.996160626411438 923.20837295055389 397.84970359504223 1156.2083242088556 452.35542240738869 67.991455554962158 75.231444552540779 939.71932984888554 812.99153864383698 1797.7306336909533 222.74747747182846 71.246495366096497 2271.2262120842934 1563.7343488633633 2855.8211492449045 89.982646822929382 134.70653587579727
leaf_count=3025 5636 5805 8414 132 1900 5909 5797 64301 5856 5813 4584 7945 111 8946 5781 11730 7007 5935 4233 4254 2552 5826 9842 11818 13692 11719 11832 5677 5958 2424 2710 5613 13880 27287 5816 3491 11618 5775 58509 10350 1336 23477 1484 23361 1297 25861 9192 5873 3560 472 2162 13344 10279 1604 5800 11763 35283 19753 1670 421 9971 349 5020 11051 16830 15202 2658 15566 1577 150 12967 4995 139 3345 5308 588 281 962 154 3350 331 8055 1437 12170 18627 6817 1742 3362 423 2515 7052 285 2825 2709 3299 1365 15477 1615 123 456 9231 319 4437 8124 261 266 132 12723 7415 316 3693 1592 4627 1810 272 301 3759 3252 7191 891 285 9085 6255 11424 360 539
internal_value=-6.30939e-05 0.00344667 0.00247285 -0.00205611 0.00542291 0.0042905 -0.00243635 -0.00225104 0.0020154 -0.00327493 -0.00512725 -0.00274006 -0.00145977 -0.00295621 -0.00266507 -0.00344745 -0.00477937 -0.00124373 -0.00737847 -0.000405436 0.000304275 0.00297205 0.000106606 -0.00603267 0.00269046 0.00867896 0.00540905 0.0294462 0.00679366 0.00758803 0.00823611 0.00335842 -0.00124904 -0.00908599 -0.00636699 -0.00400185 -0.00309494 0.000739548 0.00744632 0.00438278 0.00236919 -0.0155799 0.010745 0.00108175 -0.00564973 -0.00719454 0.0046675 0.0170623 0.0163475 -0.000878633 0.0022276 0.000351545 0.00235426 -0.00217161 -4.0011e-05 -0.0144783 -0.00653689 -0.000730624 0.00706517 0.0366356 0.001204 0.00618365 0.00775538 0.00415126 0.00424373 -0.00609831 -0.00215958 -0.00118358 -0.00693846 -0.00166005 -0.00398721 0.0135446 -0.0220947 0.0206058 0.000146811 0.0143431 0.0265836 0.0026486 -0.00206334 0.0146166 -0.00610258 -0.0035068 0.00833492 -0.0035046 0.00619722 0.00533983 -0.012256 0.0059597 0.00892906 -0.0027634 -0.000722608 0.00274118 0.00952474 -0.00150227 -0.00148422 -0.00407286 0.00289535 0.00255742 0.00356056 0.00838375 0.0026633 0.00675678 0.00761041 -0.000682367 -0.00772676 0.00112006 -0.0023775 -0.00362993 -0.00336389 0.00114677 0.00603557 -0.0130158 -0.0105756 -0.01445 -0.0230647 -0.00613734 0.00254341 0.00783407 0.00541816 0.0100753 -0.00563447 0.00805045 0.00886921 0.00175153 0.00234713 -0.00778544
internal_weight=224261 81222.6 78291 143038 49735.2 45326.5 140143 138695 26842 111853 55358.2 45066.9 56495.2 42235.3 28555.7 27104.5 31927.7 18025.5 4954.99 27419.3 25958.4 14259.9 13910.1 4430.49 10307.6 8816.53 40896 2931.66 28493.2 25535.4 24046.1 15187.7 12464.9 10178.9 17647.7 10770.7 9898.35 8841.68 22604.1 13709.6 7832.63 10291.3 7352.78 13070.5 16194.5 13194.4 7976.98 4408.78 2894.8 6994.78 12402.8 11782.5 5905.52 3472.58 7364.92 8804.91 13339.6 7397.94 5876.94 1512.79 5915.21 5972.6 1287.93 3674.63 5846.82 10263.2 5502.82 4838.41 947.331 5877.03 4386.97 2004.91 1486.42 1442.03 2004.38 3146.83 217.22 11862.4 455.993 2940.84 3623.2 3071.62 1639.48 3501.04 8757.03 7300.55 553.146 1280.24 946.241 21748.8 5676.11 1834.03 2942.71 2854.9 911.971 3383.07 11621.9 11146.9 8512.63 1333.69 7178.94 1219.69 1188.95 2634.3 536.937 2097.37 3842.08 3213.37 2177.73 4871.26 1002.2 1460.84 8427.41 1608.56 133.234 1478.14 2643.92 5420.94 2610.72 2810.22 3540.47 4205.95 3834.96 3493.74 117.727 8952.62
internal_count=897203 324934 313200 572269 198955 181318 560689 554892 107381 447511 221495 180303 226016 168973 114245 108440 127739 72113 19827 109693 103847 57043 55647 17727 41234 35268 163591 11734 113977 102145 96187 60755 49866 40731 70610 43092 39601 35370 90418 54841 31333 41192 29412 52286 64794 52793 31909 17637 11580 27983 49614 47134 23623 13892 29463 35240 53373 29595 23508 6057 23663 23891 5152 14699 23388 41063 22014 19356 3790 23511 17551 8020 5952 5769 8018 12588 869 47452 1824 11764 14496 12288 6558 14007 35029 29203 2213 5121 3785 87008 22707 7337 11771 11421 3648 13535 46490 44590 34052 5335 28717 4879 4756 10538 2148 8390 15370 12855 8712 19486 4009 5846 33724 6437 533 5914 10576 21684 10443 11241 14165 16824 15340 13976 471 35822
is_linear=0
shrinkage=0.05


Tree=3
num_leaves=127
num_cat=0
split_feature=107 108 22 29 107 107 39 4 106 101 33 100 108 106 35 104 111 33 22 101 40 106 33 106 25 22 107 111 22 40 34 4 101 101 101 108 106 101 33 111 2 3 24 43 4 116 4 3 111 116 35 108 44 113 129 33 40 111 4 126 115 126 13 112 20 124 44 114 97 11 22 7 121 21 119 36 128 119 11 123 11 2 126 113 117 7 129 7 113 128 12 20 97 113 101 3 118 134 109 102 123 4 128 19 19 113 11 44 128 128 122 10 7 7 15 109 117 127 93 96 5 19 21 109 15 124
split_gain=1093.09 591.115 351.579 256.376 361.017 238.262 220.19 197.411 169.78 289.806 222.653 167.803 137.206 120.005 115.564 89.5268 84.5968 115.211 74.3391 72.9124 72.1559 70.9484 68.3198 66.5561 63.0026 59.2467 67.9536 74.1337 53.6415 70.2913 53.4994 52.1401 44.3974 42.791 46.0709 62.999 39.3781 36.912 35.5961 34.9876 33.7366 29.54 28.1299 26.8138 25.831 25.7449 23.017 22.1572 21.997 20.7365 19.2614 19.0119 18.5143 18.2119 18.1577 17.6644 16.9797 22.7397 22.5779 18.6252 16.7393 16.6069 16.3155 16.2267 20.4325 15.7754 15.5208 15.3202 15.1821 15.1665 14.8138 14.5672 14.4348 14.3666 14.231 14.1776 13.8076 13.6737 13.6475 13.6341 15.316 13.2061 15.8171 13.1949 13.1212 16.9905 13.0761 13.071 12.9545 12.9468 14.425 12.8432 15.0011 12.834 12.7987 18.8123 12.6686 12.6254 12.559 12.471 16.4095 12.3435 12.3359 12.2935 12.2882 12.8773 12.2191 12.5332 13.4221 12.0344 12.0214 12.0158 11.9881 11.9858 11.8961 11.8852 11.8064 12.5801 11.7072 11.7071 15.2131 11.7032 11.6849 11.6816 11.6642 11.6505
threshold=0.214 4.0005000000000015 0.51288864240392773 -0.51149999999999995 -0.8919999999999999 -0.53949999999999987 0.89950000000000008 1.6699999999999999 -6.4999999999999991 -1.6449999999999996 0.49342834284556641 -0.9149999999999997 1.7980000000000003 -5.4999999999999991 4.9600000000000009 1.0450000000000002 0.72390141440539224 0.52591367612827844 0.50482075362160395 -1.1949999999999996 -1.3564999999999998 -4.4999999999999991 0.48082548649024637 1.5000000000000002 8.2950000000000017 0.50482075362160395 -0.13549999999999998 0.99999986793151974 0.49972671874624003 1.8665000000000003 3.3600000000000008 0.33499999999999996 1.2450000000000001 -1.0149999999999999 -0.48999999999999971 -1.3974999999999997 -3.4999999999999996 1.9450000000000001 0.4836536037583738 1.0044573759648558 3.1300000000000003 3.3600000000000008 7.0150000000000015 5.5000000000000009 0.18500000000000003 -0.43428141249163638 0.12999999999999989 4.3000000000000007 1.2356170197764276 -0.12948462253775297 8.3900000000000023 2.6525000000000003 0.17039452527262133 74.225000000000009 7.6887406389844042 0.51091831361211304 -0.64049999999999996 0.99999984273127529 -1.0000000180025095e-35 -0.33535060329098104 -8.4399999999999995 -0.057867186736722288 7387.5000000000009 0.96305323012379196 7168.5000000000009 0.19793834794637977 0.43746116695712484 69.75500000000001 -3338.4999999999995 0.83396435001056368 0.49713775222743639 0.54783888867496844 0.3410348488978186 0.62516807340416991 28.590832450630373 8.2950000000000017 -5.4999999999999991 68.835769461813626 0.85386396766373451 0.40159057660107006 0.29232768012190552 4.0650000000000004 -0.090677504159706393 4.3850000000000007 -0.828981090501416 0.43016661037754111 -6.0869768100679114 0.55994125237153269 17.580000000000002 34.500000000000007 0.66688720527434442 4284.5000000000009 4035.5000000000005 58.610000000000007 5.830000000000001 3.0000000000000004 0.57920988672973006 7.7090839672165226 0.74019232518916322 -0.78999999999999992 0.4713490217825877 0.98499999999999976 146.50000000000003 0.12981210920257114 0.86119448985946623 98.475000000000009 0.62973491345643284 0.39183149492498187 137.50000000000003 83.500000000000014 0.042068313518487867 0.56742890022171044 0.76059211961006346 0.39483364369693785 2816.5000000000005 0.57821275412075357 -0.076172798062096911 -0.0072728233893987913 -1698.4999999999998 0.076947876875928106 73.500000000000014 0.90719902746786574 0.79991561054203475 0.89578000039888861 2357.5000000000005 0.78647904220566089
decision_type=2 2 2 2 2 2 2 2 2 2 2 2 2 2 2 2 2 2 2 2 2 2 2 2 2 2 2 2 2 2 2 2 2 2 2 2 2 2 2 2 2 2 2 2 2 2 2 2 2 2 2 2 2 2 2 2 2 2 2 2 2 2 2 2 2 2 2 2 2 2 2 2 2 2 2 2 2 2 2 2 2 2 2 2 2 2 2 2 2 2 2 2 2 2 2 2 2 2 2 2 2 2 2 2 2 2 2 2 2 2 2 2 2 2 2 2 2 2 2 2 2 2 2 2 2 2
left_child=2 7 3 4 11 38 14 8 22 -10 20 81 24 -7 18 51 55 21 40 99 -11 86 109 60 33 26 44 47 50 36 77 56 53 97 42 62 72 -38 -4 -37 98 69 66 -15 122 -33 -21 -28 -41 -44 94 83 -43 -25 -54 63 57 59 -58 -32 73 -46 65 -6 79 -36 -35 -26 111 96 -61 118 114 78 -17 -45 -34 84 -13 -65 -81 -1 -83 -14 85 -23 -18 -52 -74 -39 93 92 -27 -91 -22 -96 125 -12 -5 100 119 -84 -57 -82 105 116 107 108 -40 -2 -95 -55 -106 -53 -30 -107 -29 -118 -31 120 -8 -63 -16 -102 -120 -24
right_child=1 -3 5 6 16 13 19 -9 9 10 12 23 15 43 25 74 17 -19 -20 46 28 30 41 32 67 91 27 104 29 71 31 45 76 34 35 39 37 89 106 48 -42 52 49 75 61 -47 -48 -49 -50 -51 87 113 54 68 -56 102 58 -59 -60 70 -62 121 -64 64 -66 -67 -68 -69 -70 -71 -72 -73 88 -75 -76 -77 -78 -79 -80 80 103 82 101 -85 -86 -87 -88 -89 -90 90 -92 -93 -94 110 95 -97 -98 -99 -100 -101 123 -103 -104 -105 112 115 -108 -109 -110 -111 -112 -113 -114 -115 -116 -117 117 -119 124 -121 -122 -123 -124 -125 -126 -127
leaf_value=-0.0075453440405396288 0.0049304369681501276 0.035842804586852205 -0.012387041497309731 -0.0081584061312392087 -0.0047160796879255149 0.020740270542151662 -0.0010808832864343334 0.022025980461155146 -0.019291245925713414 -0.01109120338654964 0.0028014788829215272 0.012307546497132773 0.0047284473971790798 0.0014535419321005498 -0.0080602750543773728 0.0013461000599779098 0.022424661796662478 -0.018775017360047688 -0.020297112911151542 -0.01268006921555611 -0.0045656556809120273 -0.040264248948610075 0.0030603350097241121 0.00044518200013222379 0.010400918979669584 0.014875628613604279 0.00022826817117572375 -0.0046208904508233881 0.0074121372195142575 0.032775130907729898 0.033242502624663876 0.001456011261781168 -0.0077967094908976981 0.012909768051195855 -0.00089868194357826221 0.00023967416463237953 -0.0021155357786727677 -0.0012109562089874751 -0.0090624325507696717 0.0067543537557037585 -0.010605235967927167 0.025706016952200525 0.00017198655418007721 0.0078731681383372894 -0.012130038278635891 -0.010090093781454781 -0.019554373183712181 0.0063765931588706561 0.0031633955857704094 0.0089654183839648367 -0.0014371271477932664 0.024791488673603073 0.010895140137307205 0.0070646064951446269 0.017792035935351589 0.0046418685549714789 -0.0036324885195311764 -0.0090473080876821467 0.0013299154123844173 -0.0015631703479458557 0.0086948736487822767 0.00058526519273747741 0.0082464840092684108 -0.0015735746344784118 0.011572183611018472 -0.0074222918736154934 0.033333587101716571 0.030414074394789194 0.013333254794145344 -0.009763789395843589 -0.0077775016218666702 0.018197610137765413 0.00021137623859927303 0.023515133119063836 0.0072749297102250995 0.0025296852345401211 0.0091911279256888367 0.019309726693523127 -0.025222059291723865 -0.007172762579013614 0.0013942227097607052 0.024796840443165175 -0.00014110330167991107 0.013849123307928625 0.0003028642876951326 0.0018445932584786719 -0.012201384484950756 0.0081374869621441259 0.022779123987063225 0.0046428599793480732 0.00039855780260269103 0.0017925125669250041 -0.001489814373456541 0.02309579182797665 0.015469548293001659 -0.0015166830004958078 0.013806491593339585 -0.0044704008233176747 0.0015607310353198873 -0.0053190018897625382 0.015123322112276467 -0.020082497057706809 0.032116763898161642 0.015475146104740035 -0.010032427296121168 -0.012011878530886552 0.002010049868528888 0.00029849053048094129 0.013528970875769803 -0.0043572055557629637 0.00869389308206657 -0.026591248116102469 0.00019568228115492017 0.015617708751239507 -0.013050216465465461 0.0093436055887108869 0.015195111946738558 -0.001512125067452546 0.0095070723980105361 -0.018500867199321733 -0.015650568676538891 -0.011271141578549367 -0.0036101324892523802 -0.0080717089164607392 -0.0065118884138510363 0.029854404418026878
leaf_weight=2803.0596850812435 870.95060355961323 1480.3310870826244 1498.3500111848116 478.66594687104225 1636.7078174203634 1470.7919756323099 344.75368916988373 1486.9223919957876 1437.9783540070057 1463.617276519537 835.0834177583456 399.19702026247978 443.45250764489174 2939.889765933156 8537.6197085529566 1576.4719773381948 26.980550959706306 1458.1820357143879 1475.1748567521572 8818.996128320694 6453.2801722884178 45.477304428815842 742.97625057399273 6699.7163251340389 2786.5802961736917 614.49205948412418 3025.1431092768908 6496.5610660761595 1016.219483435154 45.248416781425476 33.991025283932686 531.43408364057541 124.23810356855392 1377.2173135429621 2711.1604847162962 4346.4459077864885 7354.5466852337122 1159.1991438418627 1265.6976793706417 10201.545572906733 2779.0768565088511 405.08183787763119 1042.4656161665916 7341.8440345525742 348.951973721385 5182.3047205656767 1418.7594287395477 2844.7295163869858 7342.4961944520473 1884.1883284002542 824.69441622495651 624.02237522602081 1868.1131645292044 60.999542742967606 1971.863753259182 1629.6927562952042 11988.440102159977 2922.1724256724119 2831.9988067895174 2881.2361218035221 6460.3788888305426 2282.441943988204 340.45667676627636 2988.6831011623144 422.4556756913662 1409.3127414882183 99.932716473937035 98.985002428293228 486.49385426938534 116.74703077971935 1439.3123245239258 642.95964555442333 83.245683386921883 374.95176273584366 2839.707836329937 1498.1862139552832 2814.4120392203331 92.738577127456665 25.246482029557228 178.48240306973457 274.47271482646465 57.242545127868652 724.14642782509327 3950.2746115475893 6246.5409636497498 49.475988686084747 2929.7676345258951 626.24164763092995 275.23460474610329 1873.6597571223974 1263.4432980716228 681.99006152153015 180.49830064177513 193.49139133095741 182.74617695808411 1473.7852893173695 698.23369336128235 2084.0834577232599 1083.0636692196131 4420.5849180966616 94.952495783567429 86.487888470292091 41.498810142278671 358.46438491344452 1258.159570991993 79.233435556292534 880.79671588540077 717.08309380710125 68.743459314107895 580.6576522141695 587.2271234691143 45.9989864975214 369.64664241671562 852.94208939373493 75.74779024720192 353.17999505996704 116.46982157230377 3043.1628858596087 648.70255976915359 530.62089550495148 374.48244932293892 228.46870042383671 1789.9914719760418 125.17351558804512 136.99622295796871 42.498518362641335
leaf_count=11217 3484 5936 5998 1915 6548 5887 1380 5952 5761 5859 3341 1597 1774 11760 34165 6306 108 5842 5912 35308 25819 182 2972 26801 11147 2458 12102 25993 4065 181 136 2126 497 5510 10846 17387 29423 4637 5064 40807 11125 1621 4170 29368 1396 20742 5684 11379 29371 7537 3299 2498 7474 244 7890 6519 47965 11694 11329 11527 25843 9131 1362 11956 1690 5638 400 396 1946 467 5760 2572 333 1500 11359 5993 11258 371 101 714 1098 229 2897 15803 24989 198 11728 2505 1101 7495 5054 2728 722 774 731 5896 2793 8338 4333 17688 380 346 166 1434 5034 317 3524 2869 275 2323 2349 184 1479 3413 303 1413 466 12176 2595 2124 1499 914 7163 501 548 170
internal_value=5.81439e-05 0.00452865 -0.00266882 -0.00362713 -0.00156717 0.00391864 -0.00618711 0.00397288 0.00364518 0.00293363 0.00337026 0.00384078 0.00543919 0.00727501 -0.00411232 0.0105407 -0.00404499 -0.00498938 -0.0105997 -0.0110835 -0.000303646 -0.00444865 0.0109245 0.00588058 0.00400352 -0.00294211 -0.00341174 -0.0013767 0.000330029 0.00216074 -0.00380672 -0.00475729 0.00328162 0.00339561 0.00394479 0.00315327 0.00105786 0.000147685 -0.00611773 0.00425695 -0.00730106 0.0133353 0.00867905 0.00559256 -0.00612505 -0.00901528 -0.0136341 0.00320909 0.00525189 0.0058355 -0.00260979 0.0145866 0.0155191 0.00118993 0.0144399 0.000802716 -0.00365587 -0.00563451 -0.00268389 -0.00334239 0.00954237 -0.00191706 -0.00226144 -0.000489914 0.00114737 -0.00313178 0.0143057 0.0110943 0.0095813 0.00753692 -0.00363518 0.012541 0.00885263 0.0163755 0.00516 0.00696833 0.00847002 0.000301234 0.0100364 -1.16038e-05 0.00573284 -0.00587677 -0.000480611 0.0129304 2.09633e-05 -0.0183761 -0.01188 0.00269333 0.01756 0.00342705 0.00480059 0.00683739 0.0111551 0.00689353 -0.0035593 0.000358299 0.00890444 -0.0023883 -0.00141662 -0.00664899 -0.010642 -0.00228591 0.00533651 0.00938278 -0.00367463 -0.0030231 -0.00291098 -0.00502618 -0.00789026 0.00121162 0.0122821 -0.00741402 -0.00770738 0.0195041 0.0059828 0.00540962 -0.0034015 -0.000892377 0.00814972 -0.0128588 -0.00867939 -0.000493592 -0.00728967 0.00192252 0.00670525 0.00453447
internal_weight=224159 84929.5 139230 121548 67353.1 17681.4 54195 83449.1 81962.2 74665.1 73227.1 21162.6 46846.8 13250.7 38066.7 10286.9 46190.5 38660.1 5815.98 16128.3 26380.3 37201.9 7297.12 17491.6 36560 32250.7 30773.8 17586.3 24916.7 15355.9 34245.1 27810.9 10231.9 33674.4 30755.2 26351.4 13882 12431.6 4430.67 21890.5 4340.81 5845.51 4403.8 11779.9 13187.5 5713.74 10237.8 5869.87 17544 2926.65 9560.75 5870.69 4245.06 7293.21 3839.98 7530.46 22097.2 7276.71 14820.4 4354.54 7259.77 2859.86 4460.93 5859.27 4222.56 4120.47 1477.15 2885.57 593.492 1600.46 4320.55 1473.91 1450.45 799.395 4416.18 8840.03 2938.65 6434.23 424.444 3800.1 811.42 3670.94 867.877 4393.73 6341.49 94.9533 2956.75 1450.94 358.48 5077.02 3917.82 1476.98 794.99 2654.38 8109.81 1656.53 1483.71 2919.17 1561.73 5890.57 1469.98 810.634 1671.19 632.937 11716.4 10088.6 2932.32 2051.52 1334.44 1451.61 780.719 106.999 1627.81 1476.96 1091.97 432.413 9656.19 3159.63 830.947 1249.86 719.236 2510.91 10327.6 220.126 785.699 785.475
internal_count=896890 339785 557105 486367 269482 70738 216885 333849 327897 298703 292942 84660 187403 53008 152321 41153 184822 154697 23285 64564 105539 148855 29194 69971 146250 129036 123128 70359 99680 61430 137019 111279 40930 134707 123028 105411 55534 49732 17730 87565 17373 23387 17617 47121 52769 22868 40992 23481 70178 11707 38250 23488 16985 29175 15364 30125 88411 29117 59294 17423 29041 11441 17846 23440 16892 16484 5910 11543 2374 6402 17287 5896 5802 3198 17665 35361 11755 25740 1698 15202 3246 14689 3472 17577 25369 380 11836 5804 1434 20309 15672 5908 3180 10618 32446 6627 5935 11679 6248 23572 5884 3243 6685 2532 46878 40365 11732 8208 5339 5807 3123 428 6513 5911 4368 1730 38635 12642 3324 5003 2879 10045 41328 881 3143 3142
is_linear=0
shrinkage=0.05


Tree=4
num_leaves=127
num_cat=0
split_feature=102 108 108 22 118 102 34 103 22 108 37 101 36 101 108 34 102 102 34 34 102 106 37 111 101 108 22 37 29 26 111 111 106 108 104 30 104 105 22 130 104 105 105 38 125 118 43 26 130 34 100 102 108 115 130 101 14 118 29 7 111 105 98 3 3 3 93 115 27 7 17 120 129 124 5 109 95 113 93 10 116 112 14 133 122 12 96 27 7 125 117 93 115 98 9 5 96 129 12 45 115 124 115 121 10 10 93 95 109 124 8 19 5 15 8 124 13 95 130 44 108 12 124 7 21 13
split_gain=504.777 581.591 328.874 319.936 241.297 149.856 183.11 184.722 128.13 127.95 119.438 118.629 113.458 98.5497 157.241 344.207 116.823 101.999 111.077 96.1928 109.394 83.0904 78.4351 75.7579 83.376 72.5231 66.2675 65.3461 108.84 64.5233 60.8422 54.9495 43.3907 43.3676 41.1343 38.7279 35.2825 32.752 30.3331 28.6668 28.5073 26.4122 33.955 25.6016 25.3397 24.8645 23.8069 23.7816 23.2441 22.9273 21.9473 21.2522 20.6302 19.0788 19.0598 17.4205 17.3815 17.1208 17.0612 17.7217 16.9 15.7362 15.727 15.0671 15.0308 14.6853 14.3318 14.2426 14.2028 14.2697 14.0249 13.998 13.9575 13.8915 13.8794 13.678 13.4908 14.4275 15.9399 13.2626 13.1589 12.805 12.641 12.6331 12.434 12.8377 12.345 12.3112 12.1989 18.9496 12.1651 11.9193 11.887 11.7855 11.7724 11.6967 12.0035 16.7358 12.1233 11.681 11.6671 15.3378 12.5197 12.7016 11.8199 12.7475 12.414 11.6475 12.4644 11.5948 11.5297 12.5514 12.6017 11.66 12.3342 12.9557 11.9228 11.4817 13.1834 11.3985 11.3857 11.8183 13.324 12.296 13.0865 11.3648
threshold=0.52499999999999958 4.0005000000000015 -4.0004999999999997 0.51288864240392773 0.018146875212816622 0.50000000000000011 3.3600000000000008 0.61000000000000043 0.47426561085495561 -1.2369999999999999 5.6000000000000005 -1.0149999999999999 5.9450000000000012 2.2100000000000004 -0.17899999999999991 3.7750000000000008 0.41500000000000009 -1.0599999999999994 3.8500000000000005 3.1300000000000003 3.0699999999999998 -2.4999999999999996 5.2650000000000015 1.4987208443169198 0.64000000000000024 -0.46499999999999991 0.51288864240392773 5.2650000000000015 -1.0289999999999997 5.6000000000000005 0.90977648956473656 0.99999983333289821 -1.4999999999999998 0.070500000000000076 -0.024999999999999908 -0.27749999999999991 -2.2649999999999992 1.5520000000000003 0.48907624678517192 0.046766569557495481 3.0800000000000001 -1.4189999999999998 -0.28599999999999998 8.3250000000000011 -0.11982141926248073 -0.36607619440887695 9.5000000000000018 4.830000000000001 -0.039585228943511012 3.8500000000000005 -1.0000000180025095e-35 -1.8549999999999993 -2.8379999999999996 0.82000000000000217 -0.28804753062744576 -0.81500000000000006 0.58314794614601118 -0.14119907305187443 -0.39999999999999997 0.39483364369693785 1.107102162397773 -0.10000000000000005 1.0000000180025095e-35 4.3000000000000007 4.0650000000000004 4.3800000000000008 2101.5000000000005 -3.4150000000000018 8.7850000000000019 0.67843640263774019 0.11049720813079841 60.550433024602221 9.7544421979599409 -0.092571381433885089 101.50000000000001 0.42724967850000012 -0.15646297140226786 60.425000000000004 -1986.4999999999998 0.98208748820427583 -0.079966584060786203 0.99999970193485177 0.50852679621693697 6.7838911316208028 -0.36623785690537564 0.92339658874412478 0.12903789202486171 6.8050000000000006 0.72074884013122398 0.74700415821863075 -0.31815377459560373 -1248.4999999999998 -2.8899999999999983 1.4450000000000001 2466.5000000000005 80.500000000000014 0.43506455962708629 3.9630542897207075 0.52284117953504461 0.018169265169344504 5.7199999999999953 -0.73961411716968539 3.6700000000000013 -1.5900301411545845 0.029397303852956004 0.040893945638229158 1144.5000000000002 0.33144147515324773 2.4515542880744126 -0.78418066449610901 143.23304262171254 0.37133671043862032 63.500000000000007 541.50000000000011 -116.77546204778508 -0.076899289892188361 5401.5000000000009 0.46371363788314029 -1.0000000180025095e-35 1.0000000180025095e-35 -2.4274999999999998 0.62419274950136161 -0.45570596289897175 0.71302162940949321 0.72914207217076477 1116.5000000000002
decision_type=2 2 2 2 2 2 2 2 2 2 2 2 2 2 2 2 2 2 2 2 2 2 2 2 2 2 2 2 2 2 2 2 2 2 2 2 2 2 2 2 2 2 2 2 2 2 2 2 2 2 2 2 2 2 2 2 2 2 2 2 2 2 2 2 2 2 2 2 2 2 2 2 2 2 2 2 2 2 2 2 2 2 2 2 2 2 2 2 2 2 2 2 2 2 2 2 2 2 2 2 2 2 2 2 2 2 2 2 2 2 2 2 2 2 2 2 2 2 2 2 2 2 2 2 2 2
left_child=2 3 44 4 9 6 7 27 64 -2 22 46 29 14 16 45 17 25 120 -14 35 48 36 24 31 43 71 50 -29 39 -9 37 68 125 94 58 99 87 -32 -6 53 -38 -43 82 56 73 -5 -27 -17 -42 95 -45 -53 -36 -37 -56 -1 -35 59 -21 -44 109 63 81 -8 -65 -47 79 -12 -70 -48 -15 -72 -16 -61 -74 77 -20 -79 90 -41 -63 -10 92 85 -69 -78 117 89 -71 -64 -3 -49 -40 -13 -4 -97 98 -98 -11 102 -102 103 -52 106 -106 -105 -58 -109 -31 111 112 113 -30 115 116 -115 -23 -119 -51 121 -19 -123 124 -124 -33
right_child=1 91 5 11 12 -7 8 30 13 10 32 34 19 26 15 21 -18 18 76 20 -22 23 -24 -25 -26 47 -28 28 110 61 38 33 -34 57 40 54 41 -39 93 80 49 42 60 51 -46 66 70 83 -50 119 100 52 -54 -55 55 -57 107 -59 -60 74 -62 62 67 65 -66 -67 -68 84 69 88 72 -73 75 -75 -76 -77 86 78 -80 -81 -82 -83 -84 -85 -86 -87 -88 -89 -90 -91 -92 -93 -94 -95 -96 96 97 -99 -100 -101 101 -103 -104 104 105 -107 -108 108 -110 -111 -112 -113 -114 114 -116 -117 -118 118 -120 -121 -122 122 123 -125 -126 -127
leaf_value=0.0066084269164531171 0.012004210370791954 0.046105313447088167 0.0062490936817736938 0.020693934623864027 -0.0076944016204730896 -0.018132298968557999 -0.011503708866935518 0.013503765610382874 0.0072651874634820195 0.010617346298416236 -0.002170053057879115 0.00024777041526005255 0.020533869122766127 0.0077952405604034165 -0.0078769260526641693 -0.00046238697273182371 -0.010635306776086362 0.0077346131381114749 -0.0040415164463707947 -0.0030983709930243967 0.015356099499834901 -0.00056289044584311007 0.021879720978678366 -0.0070121290962814999 0.0072721319171993653 0.0063158568429179107 -0.0052952067225124234 -0.017497507558716274 -0.018622316517204543 0.016748669604132155 -0.0015717425797268647 -0.016727690578951678 -0.013396050197202226 0.0016429956285803377 0.0077260283593062187 -0.0030935905929396421 -0.0099990218479119788 -0.0062152560399429688 0.010213972102517656 0.002515989554456866 0.0062290346555439902 0.0046482766866625001 -0.00092724562824455506 -0.0029784707228446604 0.021925266773287135 -0.017001957209943446 0.0041159787355329524 -0.024587709352759182 -0.011761636190960094 0.024144265385053165 -0.019397661349281694 -0.0095610456999578805 -0.0041389876689968373 0.014029151318583281 -0.0030580295252207665 0.0044206650972133691 0.018861484178336135 -0.0038007402395478715 0.0072902195361870693 0.0025417807765201975 -0.0048795285780634384 -0.0031552546152275006 -0.018489010520952396 0.020099827030785743 -0.0071664320817071752 0.00079359728214038825 -0.00088875656925292495 0.025532331122164277 -0.0091325535702615739 0.014768848809194763 0.011128203096564218 -0.0024159248801698553 0.034142728894536546 -0.013622277303124665 0.013794254971847731 0.016533727062625108 0.0019799332067078671 0.030551048967052089 0.0014138279948271765 0.026762273515151615 -0.0046195827349227551 -0.020043571741130473 -0.0010886895198862843 0.00098584968313124364 0.0044611330122912678 0.0020517744385097356 -0.0016234165043334222 0.0027951334081319397 -0.0050644481144753156 -0.025687143809777005 0.00042982412370278389 0.032428046372651675 -0.0038346286090862034 0.0048122337862924053 -0.011515620738175377 0.0022646106307388082 -0.052307718203557146 -0.0013249529300641456 -0.0073799726155913282 0.0018122341353445039 0.017533104510325064 0.0013569669681993861 -0.0064831590592534811 0.0054192793062356427 -0.021186076740056223 -0.00074813778728325482 0.037953006622536575 0.0011535963308439109 0.028198117156361197 0.0047051000142059969 0.002221452191680125 -0.0068135823267554355 -0.0038267240027759597 0.036852044359616663 -0.0031870961571372688 -0.00098752329267789009 0.0048900133009488972 0.014846915316771634 -0.022490597484218312 -0.0018344751023376413 0.0061593011990799086 0.006490299991965676 0.023295497608858195 0.039823298571872418 -0.0049687005295678119 -0.0081795056749076438
leaf_weight=904.12669679522514 1385.7345172464848 187.63432961702347 2134.1943519860506 1461.1171431541443 2650.6043783426285 1450.958944529295 3099.2185994684696 2932.4068393707275 688.92866557836533 679.66991163790226 1859.096150547266 1241.77169495821 1104.8681042343378 4043.7820723205805 1851.3072490692139 538.75102691352367 2968.545778259635 944.31552647054195 3651.7328496724367 923.4813996553421 2347.9872633963823 1842.9303819388151 367.70677572488785 5799.4300032705069 2920.8292751610279 2542.7133671045303 1473.8683169782162 1466.4380449652672 33.745824858546257 212.48325303196907 1456.6625448167324 465.33448924124241 2702.3331384658813 1981.4062209427357 5737.9286486208439 2088.1868875324726 1023.4632913023233 1458.0413428843021 1577.1958798617125 1600.6270687133074 4010.0261324197054 1831.1359790712595 6012.7266097217798 13883.17853294313 887.69633917510509 4335.7063911259174 398.04615759849548 89.994212299585342 2967.0245462805033 42.992474958300591 89.729485586285591 2928.5269987881184 4391.4776047319174 1522.9634504169226 1009.2318844497204 3394.1757537722588 838.14196057617664 5315.115110129118 6315.6036957502365 906.23045644164085 4922.0393821448088 1633.8284433037043 87.746351972222328 124.99313233792782 5669.8627657145262 460.97003057599068 143.27157559990883 148.49100215733051 3357.3214643746614 172.16525794565678 1496.1100964695215 364.98320978879929 126.42132939398289 2464.1808228343725 393.4917469471693 913.44192239642143 6347.1278198361397 49.242408335208893 845.36679241061211 45.748309701681137 1082.5157936811447 120.22887741029263 1317.1202277690172 2554.4628809094429 2243.608814060688 96.493854120373726 3798.1490908563137 7294.5505738705397 1317.3475656360388 34.232257306575775 2282.9170498251915 1292.6016616374254 295.20755422115326 2828.5845757126808 255.95312994718552 1713.4598653018475 33.498840495944023 151.24338962137699 27.749163240194321 848.39706410467625 156.24238693714142 2275.0893373042345 1108.595128044486 312.19449102878571 76.739039823412895 6405.314948707819 31.994688808917999 208.17351125180721 53.227753236889839 3368.617660433054 1415.5195877999067 1237.0450678467751 491.91045224666595 97.987900614738464 88.737716853618622 56.240252077579498 42.24439325928688 28.993256717920303 117.98240451514721 1428.7916890084743 5882.2296514213085 189.70246775448322 198.96194416284561 83.226450189948082 50.990957707166672 2424.0776950865984
leaf_count=3618 5544 754 8537 5852 10607 5818 12411 11735 2756 2719 7438 4968 4426 16176 7415 2156 11887 3778 14609 3694 9399 7373 1473 23213 11684 10172 5898 5880 135 850 5828 1863 10824 7927 22954 8355 4097 5836 6310 6404 16041 7325 24055 55547 3554 17380 1593 360 11881 172 359 11725 17572 6093 4039 13577 3354 21266 25264 3625 19695 6537 351 500 22693 1844 574 594 13436 689 5987 1460 506 9870 1574 3656 25392 197 3382 183 4331 481 5269 10219 8975 386 15195 29179 5272 137 9132 5194 1181 11315 1024 6854 134 605 111 3394 625 9101 4435 1249 307 25625 128 833 213 13475 5663 4949 1968 392 355 225 169 116 472 5716 23530 759 796 333 204 9705
internal_value=-1.51599e-05 0.00313086 -0.00180464 0.00255458 0.000806747 -0.00214943 -0.00198194 0.00161035 -0.00290173 -0.00278317 -0.00359909 0.00829003 0.00355436 -0.00240082 -0.00278717 -0.0050809 -0.000995278 -0.000431008 0.00212675 0.00622985 0.00531958 -0.00274795 -0.000924019 -0.00188693 -0.000640299 -0.00239607 0.00387992 -0.00110897 -0.00608235 0.000493795 0.00762321 -0.00174497 -0.00804188 -0.00437604 0.00607282 0.00375093 -0.00147246 0.000749411 0.00467998 -0.00400681 0.00699416 -0.0022716 -0.00165132 -0.00361791 0.0148852 -0.0138747 0.0154712 0.00277544 -0.010027 0.00427006 0.00057988 -0.00412877 -0.00630939 0.00904966 0.000839081 0.00270531 0.011759 -0.00232177 0.00596389 0.00219305 -0.00270688 0.00271167 0.00137036 -0.00200082 -0.00870048 0.004934 -0.0164878 0.0029797 -0.00589366 -0.00731051 0.0128656 0.00694859 0.0142359 -0.0111599 0.00595631 0.0186947 -0.000383463 -0.00264688 0.0030394 0.000243116 -0.000361323 -0.00432107 0.00177885 -0.000285754 0.00563433 0.0163273 0.000630419 0.00184396 -0.00329099 0.00798895 -0.000272069 0.0341801 -0.0087217 0.00674804 -0.00176236 0.00369976 0.000871301 -0.0103193 -0.0322582 0.00573413 -0.000631247 0.00240193 -0.00155097 -0.000759233 -0.0005121 -0.000992483 0.00850868 0.0159846 0.00672294 0.00542334 -0.00124584 -0.00364483 0.00118443 0.00892243 0.0122259 0.019203 0.0273107 -0.00164012 -0.0150659 -0.00106427 0.00714507 0.0110903 0.0171279 0.0231509 0.0175112 -0.00956056
internal_weight=224157 81272.3 142885 79792.1 61156.5 139994 138543 28240.8 110302 26513.4 25127.6 18635.6 34643.1 101533 95650.1 41948.9 53701.2 50732.7 22041 18483.3 17378.4 33154.5 15685.1 29648.7 23849.3 28691.6 5882.63 19445.9 4929.87 16159.9 8794.85 20928.4 9442.5 10185.9 14240.4 15030.4 15317.4 10742.5 5862.44 5333.75 12742.7 13789.4 12765.9 23209.2 2891.37 8794.47 4395.14 5482.38 3505.78 5481.81 14516 21203.2 7320 7260.89 6491.59 4403.41 2003.67 7296.52 8538.81 2223.2 10934.8 10826.1 7245.03 2340.02 8769.08 585.963 4478.98 4905.01 6740.16 4881.07 2934.02 4408.77 2535.97 4315.49 1299.72 1039.86 14691.6 4546.34 894.609 2416.41 2683.14 1754.06 2006.05 2939.66 2488.59 244.985 10145.3 9284.46 1523.75 206.398 2370.66 1480.24 385.202 4405.78 1497.72 4060.15 1925.95 212.491 61.248 1528.07 10455.9 2431.33 8024.57 6915.97 6826.24 6482.05 344.189 1099.54 261.401 3581.1 3463.43 2047.91 810.867 318.956 285.21 196.473 140.232 1989.91 146.976 1471.78 7349.43 1467.2 522.882 333.179 249.953 2889.41
internal_count=897006 325211 571795 319263 244701 560223 554405 112994 441411 106098 100554 74562 138603 406307 382773 167910 214863 202976 88175 73953 69527 132671 62758 118634 95421 114801 23534 77806 19736 64650 35188 83737 37796 40761 56968 60128 61285 42976 23453 21342 50976 55172 51075 92869 11572 35239 17594 21932 14037 21929 58070 84844 29297 29047 25971 17616 8018 29193 34157 8893 43750 43308 28983 9362 35104 2344 17954 19621 26972 19534 11742 17636 10149 17285 5199 4162 58775 18188 3579 9666 10735 7018 8025 11760 9955 980 40587 37140 6098 826 9483 5948 1541 17625 5992 16241 7704 850 245 6113 41829 9726 32103 27668 27309 25932 1377 4400 1046 14325 13856 8193 3244 1276 1141 786 561 7961 588 5888 29400 5870 2092 1333 1000 11568
is_linear=0
shrinkage=0.05


Tree=5
num_leaves=127
num_cat=0
split_feature=107 108 22 29 107 37 107 4 106 101 33 101 103 108 103 106 105 40 33 33 105 35 104 25 36 3 104 36 22 108 107 100 101 33 105 34 112 111 23 3 33 104 93 104 105 108 115 44 108 27 128 94 113 108 22 40 33 115 95 112 44 115 13 21 4 0 93 129 123 131 94 120 120 95 113 12 128 127 93 114 11 4 20 93 127 12 121 122 119 96 122 9 96 123 10 8 110 115 129 96 93 95 3 11 3 4 4 22 10 46 0 4 13 104 110 118 12 8 121 95 8 113 21 15 8 8
split_gain=868.096 450.805 278.044 231.592 288.016 243.152 191.494 158.306 158.219 234.949 194.807 157.398 132.941 114.23 101.243 100.926 73.1837 68.6195 66.8735 60.2616 57.9888 55.2969 52.3648 51.3597 50.5462 49.8543 44.7299 62.0807 43.445 42.6438 40.235 46.7488 46.1696 26.775 26.6739 24.9325 23.7333 22.779 22.7655 24.1005 22.4174 20.0341 19.8146 19.3131 19.2912 19.0713 18.0725 16.574 16.1284 15.603 15.4623 15.3202 15.2971 15.0307 14.7733 14.1844 14.1724 14.0705 13.9799 13.496 14.0198 13.4744 13.1888 14.477 12.7965 12.713 12.6861 12.6799 12.6721 12.6481 15.2301 13.2418 12.5207 14.3011 12.3223 12.2355 13.0943 12.2249 12.2146 12.2617 14.1311 12.2087 12.2014 12.0642 13.8761 12.0208 13.1628 11.9718 12.8923 11.8798 12.8089 11.7805 11.728 13.189 21.7595 11.6979 11.6866 11.5522 13.7758 18.5399 11.4915 11.6764 11.4479 19.1465 18.6622 19.1996 13.8424 13.7669 12.714 12.6992 11.4165 11.4012 11.395 11.3044 11.2774 17.2262 13.5112 11.1937 14.1003 12.5986 11.1192 11.3447 11.0115 10.9583 10.9065 16.4608
threshold=0.214 4.0005000000000015 0.51288864240392773 -0.51149999999999995 -0.8919999999999999 5.6000000000000005 -0.53949999999999987 1.6699999999999999 -6.4999999999999991 -1.6449999999999996 0.49342834284556641 -1.1949999999999996 -1.6899999999999997 1.7980000000000003 -0.61000000000000021 -5.4999999999999991 -0.78399999999999992 -1.3564999999999998 0.50012796471918441 0.52591367612827844 -0.20849999999999994 6.7900000000000009 1.0450000000000002 8.2950000000000017 6.7000000000000002 4.3000000000000007 0.37500000000000006 6.7000000000000002 0.50482075362160395 -1.7979999999999998 0.57900000000000007 0.85499999999999987 0.64000000000000024 0.4836536037583738 1.2935000000000001 3.6050000000000009 0.99999975343020264 0.84866132186874343 4.3000000000000007 4.4650000000000007 0.48791984006944561 -1.4249999999999996 2101.5000000000005 0.37500000000000006 0.24800000000000003 0.3010000000000001 0.49500000000000238 0.17039452527262133 2.6525000000000003 6.8050000000000006 30.500000000000004 0.086702560673133602 73.160000000000011 -0.42249999999999993 0.49130209521671003 -0.51149999999999995 0.48791984006944561 20.73 1.5920076679778719 1.3109574524462879 0.43746116695712484 -1.4399999999999997 1116.5000000000002 0.80368335100428834 -0.069999999999999785 12.500000000000002 513.50000000000011 7.1474431220511399 -0.57497393964131971 7.1948120856395228 0.068867592592175134 25.128616474459594 17.189234168196631 0.42678160187186315 69.75500000000001 0.79140799695869435 21.500000000000004 0.18456959581035995 1090.5000000000002 43.025000000000013 0.91040997417931824 -0.75999999999999968 7410.5000000000009 -1186.4999999999998 0.13592844457034145 0.039177149146269054 -0.75109222184572344 -0.42968053246543575 44.744942192341945 0.34358936788681832 -0.23682549218081511 735.50000000000011 0.40578028716634373 0.71085608741117079 0.70067270236844215 240.49057128602985 0.39519554276637664 -1.9949999999999994 5.6774069696147356 0.16000516807601833 -2199.4999999999995 0.37437939814636384 3.3600000000000008 0.32270148843358826 3.7750000000000008 0.21500000000000002 0.66000000000000003 0.49972671874624003 0.97357663075160195 -0.12293724516341284 1.0000000180025095e-35 0.98499999999999976 7895.5000000000009 -1.8149999999999993 2.173365985331762 0.78088020180189821 0.89534644291071486 -447.27162828604509 0.18156647306251719 0.30969131479403528 188.48319278752672 70.145000000000024 0.75064818348370566 2893.5000000000005 435.80213930851863 -337.12974748248979
decision_type=2 2 2 2 2 2 2 2 2 2 2 2 2 2 2 2 2 2 2 2 2 2 2 2 2 2 2 2 2 2 2 2 2 2 2 2 2 2 2 2 2 2 2 2 2 2 2 2 2 2 2 2 2 2 2 2 2 2 2 2 2 2 2 2 2 2 2 2 2 2 2 2 2 2 2 2 2 2 2 2 2 2 2 2 2 2 2 2 2 2 2 2 2 2 2 2 2 2 2 2 2 2 2 2 2 2 2 2 2 2 2 2 2 2 2 2 2 2 2 2 2 2 2 2 2 2
left_child=2 7 3 4 12 16 33 8 21 -10 17 37 36 23 18 -8 -5 117 45 20 54 47 48 30 57 28 44 49 55 -14 61 32 95 62 53 42 -1 112 -26 72 91 113 -13 58 -19 -6 -34 -2 66 -28 100 67 102 74 -16 -18 -17 89 -20 60 -33 -12 63 -4 81 77 110 -49 -36 70 -24 -72 -40 92 -31 -45 -77 -3 79 114 -81 -59 -61 -56 96 -68 -87 88 -53 -22 -91 -23 93 123 -95 -32 -85 98 -46 -100 -48 -102 103 122 105 -104 108 109 -106 -107 -15 -38 -7 -39 -52 116 -116 118 119 -11 121 -47 -51 -74 125 -35
right_child=1 65 6 5 14 11 15 -9 9 10 13 35 29 22 19 56 25 26 43 -21 24 40 69 -25 38 -27 27 -29 -30 34 31 59 46 124 68 -37 111 41 39 -41 -42 -43 -44 75 97 120 50 51 -50 52 78 87 -54 -55 83 -57 -58 64 -60 82 -62 -63 -64 -65 -66 -67 85 -69 -70 -71 71 -73 73 -75 -76 76 -78 -79 -80 80 -82 -83 -84 84 -86 86 -88 -89 -90 90 -92 -93 -94 94 -96 -97 -98 -99 99 -101 101 -103 104 -105 106 107 -108 -109 -110 -111 -112 -113 -114 -115 115 -117 -118 -119 -120 -121 -122 -123 -124 -125 -126 -127
leaf_value=-0.00699421085605525 0.026961042917948291 0.017206660113882739 -0.027149456805743367 -0.0061291852105530972 -0.0027350753658086794 -0.0093972364382932383 0.018640029470032449 0.019709061547170077 -0.017604015748454958 0.0090758821291621484 -0.0044061340114798118 -0.020278948810464409 0.011109910340051345 0.0036075252940842928 -0.013965083177583463 0.0034313461685705304 -0.0041469848908747093 -0.0052052738691863347 0.0041249275718106236 -0.01613331892411848 0.0010420084144258743 -0.012035834658521517 -0.0036767877936718612 0.0098315929649824829 -0.0092564944121793502 0.0059015315462798796 -0.0057031451814031284 0.0081254990553395554 0.0066194275451604322 0.0029835645084277458 -0.0032980525425809755 0.011217222003933033 0.0016377116399757721 -0.006881082032263783 -0.021497874435974888 -0.012434165355124283 0.00047365564946248744 -0.005154692860372497 -0.0082356346744416123 -0.0096424699758446558 0.0090929020202432202 -0.0021532953913081096 0.018086631550487543 -0.0020701348543869691 0.011065764491622061 -0.005612640023610109 -0.025029577041838082 0.012432804350615584 0.017005689110923872 -0.00016054006214797083 0.0053767591817236197 0.013645557833797834 0.0062380904960905132 0.0078448072768747615 -0.014900882862220381 -0.00068357356175922533 0.0070121683792226082 -0.0089885419626749286 -0.017264290467141192 0.0057573257250641057 0.030438146120126131 0.0011063731348332718 -0.0090441386133295748 0.0056872170119166314 -0.026344898151617935 0.048517768838963957 -0.016515207235395395 0.021692497109479039 0.00070518622539134611 0.0069315416393217234 0.011851846713613112 -0.0079372978395423101 -0.00094780088246954573 -0.012372466473504819 0.0093938529585270696 0.019091354108850964 0.0019770380415124081 0.031757139552317189 0.011459551483802781 0.0089058681815505965 -0.015616004100647202 0.011558100684663154 0.018343402387182985 -0.014904579926035369 -0.0079874237069829466 0.039989242125683562 0.0070824037737854222 0.0083462687101069789 0.056540045392926674 0.025083097208950047 0.0054217201651142882 0.002993719501410808 0.0085137614867563018 0.0025976756315664682 0.051694088238097895 0.0021199400589141998 0.0098153716891213709 -0.0020063294049797241 -0.0060261435508868 0.011660888243545747 0.0036504809797395783 -0.0087930640578103621 -0.01760189283207712 0.0079382908934925635 -1.1794607445495091e-05 0.0090242117893990122 -0.017214533931687453 0.0080400741605348904 0.011709757063266674 -0.016813400037619792 0.013766155808196732 -0.017507815343553255 0.01309967283491676 -0.0088334946019126403 -0.012456297828969181 0.0057894914278828272 0.018446758599920635 -0.013484960094321388 -0.017229602854805584 -0.026566813843898241 -0.011236628985554045 0.01469465578077816 -0.019701729208711955 -0.013594946928104463 -0.0085238776015589615 0.0019797666561499395
leaf_weight=2577.6599362492561 284.19480527937412 168.0811619758606 203.9178391546011 7353.6461920887232 13827.811766505241 4333.8088054060936 1476.5910297632217 1460.1133390069008 1436.8359790891409 189.75238254666328 1238.4300269782543 1446.0566975623369 2920.317641839385 309.38911563158035 1496.2638021707535 7380.8532400727272 5900.134381338954 4413.1648757904768 5089.0098224431276 1456.8477539718151 2716.0608045905828 144.2166745364666 726.73039154708385 2890.4678837954998 2979.8095898628235 2839.6216160953045 1065.8364710509777 2942.6129293739796 1500.0880271494389 4923.7600887417793 2892.6124559640884 1472.9883331507444 3928.8176854997873 823.45811808109283 65.244301900267601 10207.70465554297 2437.575903698802 7376.6875574439764 695.58787208795547 1382.1135676205158 2935.4722868800163 4357.8796257823706 33.951725363731384 3454.1799244135618 416.74469991028309 1780.4101663827896 39.247119873762131 680.99168878793716 1476.3428476303816 270.9715384542942 2771.0705052316189 51.698859050869942 1095.8897527605295 4380.1748321652412 582.62485618889332 5933.0239754170179 4427.8959168046713 261.55930590629578 76.988125622272491 2626.3499487191439 101.52530293166637 10517.542378246784 1255.508285343647 39.686079397797585 72.178979396820068 101.42332407832146 51.971021890640259 826.14149032533169 2843.9645789712667 3149.2476572394371 395.98870903253555 106.74665606021881 2825.9276284724474 253.92733806371689 885.41747860610485 130.47808736562729 770.12630742788315 1204.6692023426294 1144.1684981584549 2654.0546705722809 59.495135992765427 99.21884660422802 207.94846270978451 62.188851550221443 3514.1237532198429 30.733243077993393 1281.3405229598284 1043.643828690052 26.72398915886879 101.99253165721893 440.96513719856739 1309.3722003400326 354.9360286295414 87.977383375167847 29.996190428733826 1517.9583852142096 200.05232530832291 3308.6222905814648 469.97792918980122 215.74003471434116 1561.6358668655157 213.73582135140896 311.80578307807446 995.89304089546204 8590.8729573637247 65.240110576152802 113.72615511715412 205.74538806080818 237.21987164020538 170.46306003630161 2757.6820136159658 90.954630717635155 56.427189975976944 2923.8631693720818 333.23320764303207 395.46371752023697 38.997396662831306 1136.4587939977646 114.07574169337749 27.97163151204586 1072.1435141861439 70.940926492214203 97.989587858319283 181.9566252976656 666.51168070733547 1438.7431654036045
leaf_count=10318 1139 676 817 29434 55329 17357 5919 5854 5767 760 4955 5807 11687 1238 5996 29525 23611 17660 20357 5847 10865 577 2907 11566 11931 11359 4265 11774 6001 19696 11573 5896 15716 3295 261 40913 9752 29525 2783 5534 11747 17436 136 13819 1667 7129 157 2726 5915 1084 11085 207 4384 17524 2333 23736 17714 1047 308 10507 407 42073 5030 159 289 410 208 3309 11377 12598 1584 427 11306 1016 3542 522 3081 4853 4577 10617 238 397 832 249 14071 123 5128 4179 107 408 1764 5238 1420 352 120 6073 801 13237 1880 863 6247 855 1248 3984 34368 261 455 823 949 682 11037 364 226 11708 1333 1582 156 4552 457 112 4293 284 392 728 2667 5757
internal_value=-0.000104735 0.00387584 -0.00253661 -0.00339011 -0.00142795 -0.00581972 0.00331535 0.00339205 0.00310164 0.00241557 0.00280792 -0.008748 0.00340599 0.00474343 -0.00364471 0.00631677 -0.00199374 -0.0006224 -0.00160973 -0.00634503 -0.00556678 0.0101264 0.00939903 0.00343496 -0.0036404 -0.000112947 -4.85743e-06 0.00155793 -0.00139442 0.00564548 0.00288628 0.00415009 0.00299322 -0.00568876 0.00442643 -0.0133162 -0.0036185 -0.00594457 -0.00570205 -0.00387832 0.00657836 -0.00499725 -0.0193896 0.00173596 -0.00286807 -0.00351157 0.00447905 0.0154678 0.012471 9.56247e-05 0.00569027 0.0142187 0.000604693 0.00563203 -0.00967256 -0.00241099 0.0047747 0.00126807 0.00380356 0.00875334 0.012469 0.000525071 -0.0111234 -0.0217788 -0.00719262 0.0312805 0.0109573 0.0175174 0.000201915 0.00525245 0.00094637 0.00763634 -0.00207808 -0.000928959 0.00396219 -0.000715808 0.0044713 0.0299861 0.00670512 0.00583341 0.0083636 -0.00331592 0.00668558 -0.00819654 -0.00715902 0.0069334 0.00787194 0.0097778 0.0285916 0.00239453 0.00914391 0.00149551 -9.10503e-05 -0.00107092 0.0152887 -0.00143221 0.00391695 -0.000528308 0.00390178 -0.000449736 0.00155026 0.00214754 4.57901e-05 0.00433269 -0.000557389 -0.00811294 7.8946e-05 -0.00138702 0.000303254 -0.00963669 0.0127438 -0.000174518 -0.00910549 -0.0061998 0.00389093 -0.00146584 -0.00918487 -0.0111255 -0.00302073 0.00442347 -0.00718151 -0.00482804 -0.00538351 -0.00171666 -0.00290381 -0.00124425
internal_weight=224192 85022.3 139170 121456 67193.5 54262.9 17713.2 83548.1 82088 74785.5 73348.7 30736.4 21125.1 46891.9 46068.4 13285.3 23526.5 26456.8 26272.1 19796.3 18339.5 7302.46 10286.2 36605.7 12484.2 16172.9 24988.5 16164.3 13333.2 16018.9 33715.3 21959.3 17550.5 4427.83 13098.6 11687.7 5106.19 19048.7 8792.23 5812.42 4389.06 14658.4 1480.01 9520.78 8824.25 16751.3 13139.9 2913.39 5907.46 13221.7 9211.1 2629.2 12155.8 10189.4 5855.25 11833.2 11808.7 3691.98 5166 4408.81 1574.51 11756 1499.11 243.604 432.957 1474.17 4431.12 1507.13 2909.21 4378.71 1229.47 502.735 4430.31 3734.72 5809.18 4354.78 900.604 1372.75 7396.48 6252.31 2713.55 360.778 2834.3 4358.99 3776.36 1364.04 1312.07 1122.07 78.4228 3259.02 542.958 1453.59 3480.79 3125.86 117.974 4410.57 262.241 4411.08 1102.46 685.718 1814.62 1775.37 11059.9 1364.85 9695.07 753.254 8941.82 441.449 8828.09 235.703 3067.07 2528.53 4390.24 10300.6 3538.76 767.694 372.231 1468.26 331.8 217.724 2923.49 1851.35 368.961 3007.88 2928.71 2262.2
internal_count=897288 340256 557032 486149 268900 217249 70883 334317 328463 299234 293467 123108 84521 187610 184379 53158 94141 105857 105122 79257 73410 29229 41165 146445 49960 64707 99976 64669 53348 64087 134879 87851 70209 17725 52400 46856 20434 76252 35190 23259 17562 58669 5943 38087 35307 67035 52563 11667 23649 52895 36847 10528 48630 40762 23450 47347 47239 14770 20665 17642 6303 47028 6006 976 1733 5939 17734 6035 11638 17516 4918 2011 17725 14942 23238 17422 3603 5529 29588 25011 10855 1444 11339 17454 15121 5459 5251 4493 314 13037 2172 5815 13926 12506 472 17646 1050 17647 4410 2743 7259 7102 44246 5460 38786 3014 35772 1766 35317 943 12275 10116 17583 41233 14156 3071 1489 5881 1329 872 11706 7413 1476 12034 11719 9052
is_linear=0
shrinkage=0.05


Tree=6
num_leaves=127
num_cat=0
split_feature=107 108 29 37 106 103 4 106 99 33 33 108 28 43 106 106 108 4 125 107 25 108 107 106 4 4 33 99 35 101 35 107 125 125 99 103 108 100 101 101 130 22 34 100 23 130 3 116 107 109 107 108 23 14 8 130 33 130 18 126 119 2 130 127 118 44 118 109 93 8 134 132 119 96 122 105 114 0 134 10 127 108 95 113 134 132 11 95 122 18 95 20 113 118 119 103 133 44 129 126 133 129 94 125 127 6 120 8 115 11 93 127 119 132 109 122 110 17 119 126 99 6 132 115 18 19
split_gain=793.763 443.571 244.729 254.628 172.122 234.074 142.9 131.062 194.704 163.376 109.348 106.873 81.1965 80.9697 75.5822 68.0516 60.6114 65.3061 56.4656 56.008 47.5022 45.3428 40.9381 62.9874 43.0543 52.4533 40.3044 40.2487 40.1992 37.8574 36.2444 35.7933 59.7813 37.8621 35.8912 34.2242 31.5627 31.0989 29.6533 42.0142 24.7474 22.8694 20.1741 21.8427 20.0923 19.3046 19.1349 18.3239 18.0506 17.497 16.8072 17.5818 16.6955 16.3646 16.3485 16.2974 16.2613 15.0123 14.577 14.3835 14.0605 16.944 20.764 13.7594 13.6536 13.5368 13.2039 13.107 13.0216 12.7514 12.7086 12.446 12.975 12.3983 12.651 12.3583 13.5288 12.2287 12.1605 14.29 12.0417 11.9945 11.9769 17.588 12.7581 12.218 11.9474 11.9051 11.8279 11.7487 11.7415 17.8049 11.7378 12.3501 13.2032 11.7178 11.6829 11.6305 12.6598 11.6241 12.298 11.6031 13.6639 11.5831 11.5688 11.3901 11.2786 14.7602 14.3143 12.1442 12.7383 11.2649 12.3843 11.251 11.2296 15.6507 11.2107 11.2073 11.1065 11.726 11.0992 12.9531 12.357 12.0241 11.2594 11.0678
threshold=0.214 4.0005000000000015 0.47950000000000004 4.830000000000001 -1.0000000180025095e-35 -0.42499999999999977 1.6699999999999999 -6.4999999999999991 -1.9449999999999996 0.49342834284556641 0.52591367612827844 1.7980000000000003 1.1600000000000004 8.5000000000000018 -5.4999999999999991 -1.0000000180025095e-35 -3.1154999999999995 -0.52999999999999969 -1.0000000180025095e-35 -1.9054999999999997 8.2950000000000017 -0.17899999999999991 0.14600000000000002 8.5000000000000018 0.72499999999999998 0.66000000000000003 0.5197728948641428 -1.9949999999999994 6.7900000000000009 -1.0149999999999999 8.3900000000000023 0.62400000000000011 -0.21275416154412022 0.018305277698063383 0.42999999999999977 -1.6899999999999997 2.5050000000000003 0.18500000000000008 -0.48999999999999971 0.33499999999999958 -0.039585228943511012 0.50482075362160395 3.6050000000000009 0.12999999999999992 4.0650000000000004 0.31141533928097198 4.4650000000000007 -0.38187216503028149 -1.6499999999999997 1.3807710442419907 2.0180000000000007 0.15749999999999997 3.8500000000000005 0.14755901077486713 -1451.5180304810926 -0.14758055065044431 0.5197728948641428 -0.065954569394511567 0.13809055847841878 -0.069174138816960468 13.815485557651771 4.5900000000000007 0.23127892472129333 0.44444444144880185 0.57920988672973006 0.32522407520796087 0.15977711591091248 2.5102513027380664 -1986.4999999999998 -1033.8966102196334 8.7134998294004067 7.2126630641676064 55.970684276678618 0.36734031975113263 0.47271423636326831 0.71300000000000008 70.145000000000024 12.500000000000002 7.7090839672165226 0.90180678273379444 -36.500036500036494 0.34900000000000009 -0.16348000638212506 64.345000000000013 8.4101646124642482 7.368024129342877 0.5876695169942755 0.52517904945309357 -0.12271185543189893 0.10434673455722586 -0.098980266889953858 4929.5000000000009 70.765000000000015 -0.1257309475233287 16.070557717420744 -2.0549999999999997 8.679482080003309 0.17039452527262133 7.0925349573588656 -0.06708485639184146 6.4700249102891876 4.4947129459006661 0.76558762782628031 -0.37871974554849258 0.18456959581035995 154.50000000000003 17.053692887079968 -1008.5901570716579 -4.5999999999999979 0.7385995672616732 1181.5000000000002 0.80250844821891198 35.25642996132877 6.7328062991522835 1.8057276739052897 0.41589759577394675 0.43337705767513035 0.98526633573638855 57.290619844949909 -0.06708485639184146 1.5350000000000004 149.50000000000003 7.7974966545320816 -5.8899999999999997 0.25926044775889573 0.97430745558042819
decision_type=2 2 2 2 2 2 2 2 2 2 2 2 2 2 2 2 2 2 2 2 2 2 2 2 2 2 2 2 2 2 2 2 2 2 2 2 2 2 2 2 2 2 2 2 2 2 2 2 2 2 2 2 2 2 2 2 2 2 2 2 2 2 2 2 2 2 2 2 2 2 2 2 2 2 2 2 2 2 2 2 2 2 2 2 2 2 2 2 2 2 2 2 2 2 2 2 2 2 2 2 2 2 2 2 2 2 2 2 2 2 2 2 2 2 2 2 2 2 2 2 2 2 2 2 2 2
left_child=2 6 4 18 5 13 7 28 65 31 12 20 16 35 -7 81 80 19 -4 53 29 106 23 24 25 30 -13 45 97 78 95 33 55 -10 52 56 96 113 44 103 -23 -36 67 57 -31 -16 64 70 -21 58 51 -41 116 -18 -38 117 -1 101 63 -39 -58 62 87 89 -30 -9 -65 -17 -12 -25 -46 72 -55 111 -75 76 -50 104 79 -11 -6 -5 105 84 85 -84 -81 -62 -43 -35 91 -66 93 94 -47 -19 -28 -2 -99 -60 -101 102 -44 125 -3 -80 107 -15 109 110 -108 -52 -113 -20 -82 -116 -34 -33 119 -24 121 123 -123 124 -97 -40
right_child=1 77 3 15 10 14 -8 8 9 11 68 26 -14 21 27 42 17 22 37 48 -22 40 118 69 -26 -27 36 -29 46 38 -32 32 34 49 41 -37 54 59 39 50 -42 88 43 -45 47 92 -48 -49 75 -51 73 -53 -54 71 -56 -57 60 -59 99 -61 61 -63 -64 66 90 -67 -68 -69 -70 -71 -72 -73 -74 74 -76 -77 -78 -79 82 86 114 -83 83 -85 -86 -87 -88 -89 -90 -91 -92 -93 -94 -95 -96 120 -98 98 -100 100 -102 -103 -104 -105 -106 -107 108 -109 -110 -111 -112 112 -114 -115 115 -117 -118 -119 -120 -121 -122 122 -124 -125 -126 -127
leaf_value=-0.00048640609689868807 0.023643298175824862 0.017453347693434075 -0.0050840073604832212 -0.0090168142233960913 0.011221033402750234 0.018150010640566309 0.018847862909361177 -0.020478029888361671 -0.010001006244333935 0.0045530700829588796 -0.041329974487220637 0.0040982303052158608 -0.013795901516334667 0.016071862767175812 -0.0030162522153197183 -0.019172622959607245 -0.019898137567559142 -0.0046654030156562725 -0.0020412642014073453 -0.0079688580667881415 0.0094707450710302191 0.0014070117311026573 -0.015239995287191166 0.02265987606794332 0.0034420197081410069 -0.010620460578148486 0.0098881974573627844 0.0080351110159919224 0.00087482652578826025 0.011823083526162854 -0.0086231380420261385 -0.00052313578069665336 0.013414655991190344 -0.016103373835711005 -0.0021260098419151174 0.0069212744565060732 0.050723232789759709 -0.011095670085903635 0.0044713997619683279 0.001069517599284782 -0.010219056302905219 -0.0013551963399900204 -0.0091675745015526756 -0.016672395547733799 -0.012896786598917659 -0.013186288832136487 0.011229148133592777 0.0059688846451863287 -0.0034723441320953386 0.002605880434569443 0.007415692305111625 0.0045077834961954775 0.0024244159733172437 -0.0047587710791680725 0.014645135953075645 -0.0051699328840461335 0.022484480839605178 -0.0071300454908031123 -0.010667800974751609 -0.00071097126766048158 0.0080756747396069778 0.026796586280758445 -0.011300526070540232 -0.025536041526148974 -0.0054423373393717462 -0.010723969526429013 0.0071446680423128094 -0.0032414564981865035 -0.01517255745598076 0.0066015654583367715 0.013133456617875856 0.0098386998997765981 0.019504720774466435 0.018512151043852086 -0.004339759847994909 -0.0059092521575419233 0.002267150434139443 0.047953520125204291 -0.004272473947659612 -0.0031539544426686821 -0.010967486964938889 -0.0059482148928007442 -0.00043235690555452943 -0.017043742875639614 0.00020618388014847263 -0.017501723739933722 -0.043226096739038558 -0.019921671430091582 0.005754494919541219 -0.052465006891671655 0.011186041305860584 0.013216816113339436 -0.011774041590000566 0.0033318932948444551 0.0169592226870082 -0.02567385516735295 0.00402064884312769 0.0090414410793487245 0.016049321398020743 0.0071987337501474777 -0.0025268908801162437 -0.014293196603113302 0.016155449137697519 -0.0014832544039091633 0.031491669856887443 0.0093387561937726925 -0.0013432292232027838 -0.0068292599380777577 -0.0029179908440473356 0.0073143486283909209 0.0083296196961139251 0.007285524019479424 -0.010412330635417667 0.0047878019313404227 0.0011491681056159313 -0.02139377992940629 0.0065825588426594514 0.025729065187306728 -0.013904085646797352 -0.0036440613081415909 -0.0039469249407926262 0.0026171183128230911 -0.0022302154903306409 -0.00052042815289369746 -0.0050869496498353733 -0.026497460792429713
